{"learner":{"attributes":{"scikit_learn":"{\"_estimator_type\": \"ranker\"}"},"feature_names":["draw","weight_vs_average","speed_vs_average","rating_change","body_weight","recent_avg_rank","jockey_win_rate","trainer_win_rate"],"feature_types":["int","float","float","int","int","float","float","float"],"gradient_booster":{"model":{"cats":{"enc":[],"feature_segments":[],"sorted_idx":[]},"gbtree_model_param":{"num_parallel_tree":"1","num_trees":"100"},"iteration_indptr":[0,1,2,3,4,5,6,7,8,9,10,11,12,13,14,15,16,17,18,19,20,21,22,23,24,25,26,27,28,29,30,31,32,33,34,35,36,37,38,39,40,41,42,43,44,45,46,47,48,49,50,51,52,53,54,55,56,57,58,59,60,61,62,63,64,65,66,67,68,69,70,71,72,73,74,75,76,77,78,79,80,81,82,83,84,85,86,87,88,89,90,91,92,93,94,95,96,97,98,99,100],"tree_info":[0,0,0,0,0,0,0,0,0,0,0,0,0,0,0,0,0,0,0,0,0,0,0,0,0,0,0,0,0,0,0,0,0,0,0,0,0,0,0,0,0,0,0,0,0,0,0,0,0,0,0,0,0,0,0,0,0,0,0,0,0,0,0,0,0,0,0,0,0,0,0,0,0,0,0,0,0,0,0,0,0,0,0,0,0,0,0,0,0,0,0,0,0,0,0,0,0,0,0,0],"trees":[{"base_weights":[-0E0,-2.754657E-2,4.0293747E-1,-0E0,2.754657E-2],"categories":[],"categories_nodes":[],"categories_segments":[],"categories_sizes":[],"default_left":[0,0,0,0,0],"id":0,"left_children":[1,-1,3,-1,-1],"loss_changes":[1.9799066E0,0E0,3.0718493E-1,0E0,0E0],"parents":[2147483647,0,0,2,2],"right_children":[2,-1,4,-1,-1],"split_conditions":[-1.6E0,-2.754657E-2,4.4E0,-0E0,2.754657E-2],"split_indices":[1,0,1,0,0],"split_type":[0,0,0,0,0],"sum_hessian":[6.9188633E0,2.7675452E0,4.1513176E0,1.3837726E0,2.7675452E0],"tree_param":{"num_deleted":"0","num_feature":"8","num_nodes":"5","size_leaf_vector":"1"}},{"base_weights":[-6.55919E-9,-2.5130072E-1,3.900225E-2,-3.900225E-2,1.1007104E-8,1.0953938E-2,-1.4299205E-1,-0E0,-1.0953936E-2],"categories":[],"categories_nodes":[],"categories_segments":[],"categories_sizes":[],"default_left":[0,0,0,0,0,0,0,0,0],"id":1,"left_children":[1,3,-1,-1,5,-1,7,-1,-1],"loss_changes":[3.758677E0,1.9269766E0,0E0,0E0,3.7059945E-1,0E0,7.787889E-2,0E0,0E0],"parents":[2147483647,0,0,1,1,4,4,6,6],"right_children":[2,4,-1,-1,6,-1,8,-1,-1],"split_conditions":[1.1E1,-3.6E0,3.900225E-2,-3.900225E-2,-1.6E0,1.0953938E-2,4.4E0,-0E0,-1.0953936E-2],"split_indices":[0,1,0,0,1,0,1,0,0],"split_type":[0,0,0,0,0,0,0,0,0],"sum_hessian":[1.717439E1,1.3502303E1,3.6720884E0,3.6720884E0,9.8302145E0,3.6720884E0,6.158126E0,2.4860377E0,3.6720884E0],"tree_param":{"num_deleted":"0","num_feature":"8","num_nodes":"9","size_leaf_vector":"1"}},{"base_weights":[-0E0,-3.1231169E-2,3.8225773E-1,-0E0,3.1231165E-2],"categories":[],"categories_nodes":[],"categories_segments":[],"categories_sizes":[],"default_left":[0,0,0,0,0],"id":2,"left_children":[1,-1,3,-1,-1],"loss_changes":[4.145019E0,0E0,9.977443E-1,0E0,0E0],"parents":[2147483647,0,0,2,2],"right_children":[2,-1,4,-1,-1],"split_conditions":[-1.6E0,-3.1231169E-2,4.4E0,-0E0,3.1231165E-2],"split_indices":[1,0,1,0,0],"split_type":[0,0,0,0,0],"sum_hessian":[1.5360091E1,5.590678E0,9.769413E0,4.1787343E0,5.5906787E0],"tree_param":{"num_deleted":"0","num_feature":"8","num_nodes":"5","size_leaf_vector":"1"}},{"base_weights":[7.9496605E-9,-3.268768E-1,4.9528384E-1,-3.3281304E-2,-1.3104515E-1,1.1830475E-2,3.3281304E-2,-1.1830472E-2,-1.3784685E-9],"categories":[],"categories_nodes":[],"categories_segments":[],"categories_sizes":[],"default_left":[0,0,0,0,0,0,0,0,0],"id":3,"left_children":[1,3,5,-1,7,-1,-1,-1,-1],"loss_changes":[2.6052287E0,5.558548E-1,1.2441659E-1,0E0,1.02203056E-1,0E0,0E0,0E0,0E0],"parents":[2147483647,0,0,1,1,2,2,4,4],"right_children":[2,4,6,-1,8,-1,-1,-1,-1],"split_conditions":[4.4E0,-3.6E0,9E0,-3.3281304E-2,-1.6E0,1.1830475E-2,3.3281304E-2,-1.1830472E-2,-1.3784685E-9],"split_indices":[1,1,0,0,1,0,0,0,0],"split_type":[0,0,0,0,0,0,0,0,0],"sum_hessian":[1.4091909E1,8.694046E0,5.397864E0,2.3060586E0,6.387987E0,3.0918052E0,2.3060586E0,3.0918052E0,3.2961817E0],"tree_param":{"num_deleted":"0","num_feature":"8","num_nodes":"9","size_leaf_vector":"1"}},{"base_weights":[5.0138147E-9,-4.9879533E-1,3.253187E-1,-1.32302735E-2,-3.190789E-2,8.523247E-10,4.9879533E-1,1.32302735E-2,3.190789E-2],"categories":[],"categories_nodes":[],"categories_segments":[],"categories_sizes":[],"default_left":[0,0,0,0,0,0,0,0,0],"id":4,"left_children":[1,3,5,-1,-1,-1,7,-1,-1],"loss_changes":[2.5111415E0,3.0516982E-2,5.285973E-1,0E0,0E0,0E0,3.0516982E-2,0E0,0E0],"parents":[2147483647,0,0,1,1,2,2,6,6],"right_children":[2,4,6,-1,-1,-1,8,-1,-1],"split_conditions":[-1.6E0,4E0,4.4E0,-1.32302735E-2,-3.190789E-2,8.523247E-10,9E0,1.32302735E-2,3.190789E-2],"split_indices":[1,0,1,0,0,0,0,0,0],"split_type":[0,0,0,0,0,0,0,0,0],"sum_hessian":[1.3475327E1,5.108879E0,8.366447E0,2.9874098E0,2.1214693E0,3.257568E0,5.108879E0,2.9874098E0,2.1214693E0],"tree_param":{"num_deleted":"0","num_feature":"8","num_nodes":"9","size_leaf_vector":"1"}},{"base_weights":[2.4358757E-9,-4.9156857E-1,3.1979474E-1,-1.3325985E-2,-3.0946989E-2,-1.0191057E-9,4.9156862E-1,1.3325985E-2,3.0946989E-2],"categories":[],"categories_nodes":[],"categories_segments":[],"categories_sizes":[],"default_left":[0,0,0,0,0,0,0,0,0],"id":5,"left_children":[1,3,5,-1,-1,-1,7,-1,-1],"loss_changes":[2.3579788E0,4.5087337E-3,4.992081E-1,0E0,0E0,0E0,4.5087337E-3,0E0,0E0],"parents":[2147483647,0,0,1,1,2,2,6,6],"right_children":[2,4,6,-1,-1,-1,8,-1,-1],"split_conditions":[-1.6E0,4E0,4.4E0,-1.3325985E-2,-3.0946989E-2,-1.0191057E-9,9E0,1.3325985E-2,3.0946989E-2],"split_indices":[1,0,1,0,0,0,0,0,0],"split_type":[0,0,0,0,0,0,0,0,0],"sum_hessian":[1.2999765E1,4.9120817E0,8.087684E0,2.8929923E0,2.0190892E0,3.1756024E0,4.9120812E0,2.8929918E0,2.0190895E0],"tree_param":{"num_deleted":"0","num_feature":"8","num_nodes":"9","size_leaf_vector":"1"}},{"base_weights":[-1.751166E-8,-2.414959E-2,3.140487E-1,-0E0,2.4149587E-2],"categories":[],"categories_nodes":[],"categories_segments":[],"categories_sizes":[],"default_left":[0,0,0,0,0],"id":6,"left_children":[1,-1,3,-1,-1],"loss_changes":[2.216823E0,0E0,4.6988428E-1,0E0,0E0],"parents":[2147483647,0,0,2,2],"right_children":[2,-1,4,-1,-1],"split_conditions":[-1.6E0,-2.414959E-2,4.4E0,-0E0,2.4149587E-2],"split_indices":[1,0,1,0,0],"split_type":[0,0,0,0,0],"sum_hessian":[1.2614847E1,4.758521E0,7.8563266E0,3.0978057E0,4.758521E0],"tree_param":{"num_deleted":"0","num_feature":"8","num_nodes":"5","size_leaf_vector":"1"}},{"base_weights":[2.028547E-9,-4.4148707E-1,2.945249E-1,-9.379786E-3,-3.035367E-2,1.0595748E-1,3.035367E-2,3.4991385E-10,9.379786E-3],"categories":[],"categories_nodes":[],"categories_segments":[],"categories_sizes":[],"default_left":[0,0,0,0,0,0,0,0,0],"id":7,"left_children":[1,3,5,-1,-1,7,-1,-1,-1],"loss_changes":[1.8596218E0,1.2671459E-1,4.4126976E-1,0E0,0E0,5.6762278E-2,0E0,0E0,0E0],"parents":[2147483647,0,0,1,1,2,2,5,5],"right_children":[2,4,6,-1,-1,8,-1,-1,-1],"split_conditions":[-1.6E0,4E0,1.1E1,-9.379786E-3,-3.035367E-2,4.4E0,3.035367E-2,3.4991385E-10,9.379786E-3],"split_indices":[1,0,0,0,0,1,0,0,0],"split_type":[0,0,0,0,0,0,0,0,0],"sum_hessian":[1.23015995E1,4.722974E0,7.5786257E0,2.7063222E0,2.0166514E0,5.5619745E0,2.0166514E0,2.855652E0,2.7063222E0],"tree_param":{"num_deleted":"0","num_feature":"8","num_nodes":"9","size_leaf_vector":"1"}},{"base_weights":[6.8568813E-9,-4.4613263E-1,2.9487517E-1,-1.0533049E-2,-2.9434798E-2,3.84425E-10,4.461326E-1,1.0533049E-2,2.9434798E-2],"categories":[],"categories_nodes":[],"categories_segments":[],"categories_sizes":[],"default_left":[0,0,0,0,0,0,0,0,0],"id":8,"left_children":[1,3,5,-1,-1,-1,7,-1,-1],"loss_changes":[1.8448677E0,6.332219E-2,3.7658167E-1,0E0,0E0,0E0,6.332219E-2,0E0,0E0],"parents":[2147483647,0,0,1,1,2,2,6,6],"right_children":[2,4,6,-1,-1,-1,8,-1,-1],"split_conditions":[-1.6E0,4E0,4.4E0,-1.0533049E-2,-2.9434798E-2,3.84425E-10,9E0,1.0533049E-2,2.9434798E-2],"split_indices":[1,0,1,0,0,0,0,0,0],"split_type":[0,0,0,0,0,0,0,0,0],"sum_hessian":[1.2023713E1,4.5805683E0,7.4431443E0,2.6617782E0,1.9187902E0,2.8625755E0,4.580569E0,2.6617785E0,1.9187903E0],"tree_param":{"num_deleted":"0","num_feature":"8","num_nodes":"9","size_leaf_vector":"1"}},{"base_weights":[-1.4378771E-8,-4.4548267E-1,2.9299405E-1,-1.1066101E-2,-2.8693873E-2,-8.395906E-10,4.454826E-1,1.1066101E-2,2.8693868E-2],"categories":[],"categories_nodes":[],"categories_segments":[],"categories_sizes":[],"default_left":[0,0,0,0,0,0,0,0,0],"id":9,"left_children":[1,3,5,-1,-1,-1,7,-1,-1],"loss_changes":[1.7988632E0,3.0363917E-2,3.7144846E-1,0E0,0E0,0E0,3.0363798E-2,0E0,0E0],"parents":[2147483647,0,0,1,1,2,2,6,6],"right_children":[2,4,6,-1,-1,-1,8,-1,-1],"split_conditions":[-1.6E0,4E0,4.4E0,-1.1066101E-2,-2.8693873E-2,-8.395906E-10,9E0,1.1066101E-2,2.8693868E-2],"split_indices":[1,0,1,0,0,0,0,0,0],"split_type":[0,0,0,0,0,0,0,0,0],"sum_hessian":[1.1781881E1,4.4680257E0,7.313856E0,2.6191285E0,1.8488972E0,2.84583E0,4.468026E0,2.6191287E0,1.8488975E0],"tree_param":{"num_deleted":"0","num_feature":"8","num_nodes":"9","size_leaf_vector":"1"}},{"base_weights":[-0E0,-4.4245443E-1,2.901768E-1,-1.130424E-2,-2.8061321E-2,-0E0,4.424544E-1,1.1304238E-2,2.8061321E-2],"categories":[],"categories_nodes":[],"categories_segments":[],"categories_sizes":[],"default_left":[0,0,0,0,0,0,0,0,0],"id":10,"left_children":[1,3,5,-1,-1,-1,7,-1,-1],"loss_changes":[1.74177E0,1.1200428E-2,3.620274E-1,0E0,0E0,0E0,1.1200428E-2,0E0,0E0],"parents":[2147483647,0,0,1,1,2,2,6,6],"right_children":[2,4,6,-1,-1,-1,8,-1,-1],"split_conditions":[-1.6E0,4E0,4.4E0,-1.130424E-2,-2.8061321E-2,-0E0,9E0,1.1304238E-2,2.8061321E-2],"split_indices":[1,0,1,0,0,0,0,0,0],"split_type":[0,0,0,0,0,0,0,0,0],"sum_hessian":[1.1566242E1,4.3732476E0,7.192995E0,2.5788386E0,1.7944092E0,2.819747E0,4.373248E0,2.5788388E0,1.7944092E0],"tree_param":{"num_deleted":"0","num_feature":"8","num_nodes":"9","size_leaf_vector":"1"}},{"base_weights":[1.8088553E-9,-2.8695568E-1,2.1914838E-2,-2.1914838E-2,-4.910957E-10],"categories":[],"categories_nodes":[],"categories_segments":[],"categories_sizes":[],"default_left":[0,0,0,0,0],"id":11,"left_children":[1,3,-1,-1,-1],"loss_changes":[1.6817112E0,3.5092866E-1,0E0,0E0,0E0],"parents":[2147483647,0,0,1,1],"right_children":[2,4,-1,-1,-1],"split_conditions":[4.4E0,-1.6E0,2.1914838E-2,-2.1914838E-2,-4.910957E-10],"split_indices":[1,1,0,0,0],"split_type":[0,0,0,0,0],"sum_hessian":[1.1371136E1,7.0806694E0,4.2904663E0,4.2904663E0,2.7902033E0],"tree_param":{"num_deleted":"0","num_feature":"8","num_nodes":"5","size_leaf_vector":"1"}},{"base_weights":[-1.1373478E-8,-4.1396895E-1,2.7502266E-1,-9.244353E-3,-2.7594158E-2,1.04811765E-1,2.7594155E-2,-1.0803081E-9,9.244351E-3],"categories":[],"categories_nodes":[],"categories_segments":[],"categories_sizes":[],"default_left":[0,0,0,0,0,0,0,0,0],"id":12,"left_children":[1,3,5,-1,-1,7,-1,-1,-1],"loss_changes":[1.502341E0,6.437665E-2,3.1577986E-1,0E0,0E0,5.1568188E-2,0E0,0E0,0E0],"parents":[2147483647,0,0,1,1,2,2,5,5],"right_children":[2,4,6,-1,-1,8,-1,-1,-1],"split_conditions":[-1.6E0,4E0,1.1E1,-9.244353E-3,-2.7594158E-2,4.4E0,2.7594155E-2,-1.0803081E-9,9.244351E-3],"split_indices":[1,0,0,0,0,1,0,0,0],"split_type":[0,0,0,0,0,0,0,0,0],"sum_hessian":[1.1195696E1,4.2672853E0,6.9284105E0,2.4831889E0,1.7840965E0,5.144314E0,1.7840968E0,2.6611245E0,2.4831893E0],"tree_param":{"num_deleted":"0","num_feature":"8","num_nodes":"9","size_leaf_vector":"1"}},{"base_weights":[2.948738E-9,-2.7375674E-1,4.1391927E-1,-4.1391927E-1,-1.1451543E-9,9.720831E-3,2.700144E-2,-9.720832E-3,-2.7001439E-2],"categories":[],"categories_nodes":[],"categories_segments":[],"categories_sizes":[],"default_left":[0,0,0,0,0,0,0,0,0],"id":13,"left_children":[1,3,5,7,-1,-1,-1,-1,-1],"loss_changes":[1.4765791E0,3.0095714E-1,3.8606346E-2,3.8606167E-2,0E0,0E0,0E0,0E0,0E0],"parents":[2147483647,0,0,1,1,2,2,3,3],"right_children":[2,4,6,8,-1,-1,-1,-1,-1],"split_conditions":[4.4E0,-1.6E0,9E0,4E0,-1.1451543E-9,9.720831E-3,2.700144E-2,-9.720832E-3,-2.7001439E-2],"split_indices":[1,1,0,0,0,0,0,0,0],"split_type":[0,0,0,0,0,0,0,0,0],"sum_hessian":[1.1030955E1,6.843466E0,4.187489E0,4.187489E0,2.655977E0,2.4553776E0,1.7321116E0,2.4553776E0,1.7321115E0],"tree_param":{"num_deleted":"0","num_feature":"8","num_nodes":"9","size_leaf_vector":"1"}},{"base_weights":[-1.0589233E-8,-4.1235253E-1,2.7186602E-1,-1.00085465E-2,-2.647743E-2,-9.0798136E-10,4.123525E-1,1.0008545E-2,2.647743E-2],"categories":[],"categories_nodes":[],"categories_segments":[],"categories_sizes":[],"default_left":[0,0,0,0,0,0,0,0,0],"id":14,"left_children":[1,3,5,-1,-1,-1,7,-1,-1],"loss_changes":[1.4437222E0,2.1244764E-2,2.9643077E-1,0E0,0E0,0E0,2.1244943E-2,0E0,0E0],"parents":[2147483647,0,0,1,1,2,2,6,6],"right_children":[2,4,6,-1,-1,-1,8,-1,-1],"split_conditions":[-1.6E0,4E0,4.4E0,-1.00085465E-2,-2.647743E-2,-9.0798136E-10,9E0,1.0008545E-2,2.647743E-2],"split_indices":[1,0,1,0,0,0,0,0,0],"split_type":[0,0,0,0,0,0,0,0,0],"sum_hessian":[1.0878345E1,4.117056E0,6.7612886E0,2.4284275E0,1.6886283E0,2.6442327E0,4.117056E0,2.4284275E0,1.6886284E0],"tree_param":{"num_deleted":"0","num_feature":"8","num_nodes":"9","size_leaf_vector":"1"}},{"base_weights":[1.9734243E-9,-4.0987116E-1,2.696191E-1,-1.0175954E-2,-2.6004886E-2,3.1911138E-10,4.0987116E-1,1.0175954E-2,2.6004884E-2],"categories":[],"categories_nodes":[],"categories_segments":[],"categories_sizes":[],"default_left":[0,0,0,0,0,0,0,0,0],"id":15,"left_children":[1,3,5,-1,-1,-1,7,-1,-1],"loss_changes":[1.4074059E0,9.093583E-3,2.9049933E-1,0E0,0E0,0E0,9.093583E-3,0E0,0E0],"parents":[2147483647,0,0,1,1,2,2,6,6],"right_children":[2,4,6,-1,-1,-1,8,-1,-1],"split_conditions":[-1.6E0,4E0,4.4E0,-1.0175954E-2,-2.6004886E-2,3.1911138E-10,9E0,1.0175954E-2,2.6004884E-2],"split_indices":[1,0,1,0,0,0,0,0,0],"split_type":[0,0,0,0,0,0,0,0,0],"sum_hessian":[1.0735656E1,4.053459E0,6.6821966E0,2.4023867E0,1.6510723E0,2.6287377E0,4.053459E0,2.4023867E0,1.6510725E0],"tree_param":{"num_deleted":"0","num_feature":"8","num_nodes":"9","size_leaf_vector":"1"}},{"base_weights":[-2.0891522E-9,-4.068332E-1,2.671718E-1,-1.0264077E-2,-2.5572414E-2,-3.3558617E-10,4.0683317E-1,1.0264075E-2,2.5572414E-2],"categories":[],"categories_nodes":[],"categories_segments":[],"categories_sizes":[],"default_left":[0,0,0,0,0,0,0,0,0],"id":16,"left_children":[1,3,5,-1,-1,-1,7,-1,-1],"loss_changes":[1.3696946E0,3.324747E-4,2.8381598E-1,0E0,0E0,0E0,3.3259392E-4,0E0,0E0],"parents":[2147483647,0,0,1,1,2,2,6,6],"right_children":[2,4,6,-1,-1,-1,8,-1,-1],"split_conditions":[-1.6E0,4E0,4.4E0,-1.0264077E-2,-2.5572414E-2,-3.3558617E-10,9E0,1.0264075E-2,2.5572414E-2],"split_indices":[1,0,1,0,0,0,0,0,0],"split_type":[0,0,0,0,0,0,0,0,0],"sum_hessian":[1.060134E1,3.9951005E0,6.6062393E0,2.3772807E0,1.6178198E0,2.6111388E0,3.9951007E0,2.3772807E0,1.61782E0],"tree_param":{"num_deleted":"0","num_feature":"8","num_nodes":"9","size_leaf_vector":"1"}},{"base_weights":[3.7760306E-9,-2.6461866E-1,2.0173011E-2,-2.0173011E-2,-1.0561441E-9],"categories":[],"categories_nodes":[],"categories_segments":[],"categories_sizes":[],"default_left":[0,0,0,0,0],"id":17,"left_children":[1,3,-1,-1,-1],"loss_changes":[1.331787E0,2.7677476E-1,0E0,0E0,0E0],"parents":[2147483647,0,0,1,1],"right_children":[2,4,-1,-1,-1],"split_conditions":[4.4E0,-1.6E0,2.0173011E-2,-2.0173011E-2,-1.0561441E-9],"split_indices":[1,1,0,0,0],"split_type":[0,0,0,0,0],"sum_hessian":[1.0474225E1,6.5333223E0,3.9409027E0,3.9409022E0,2.59242E0],"tree_param":{"num_deleted":"0","num_feature":"8","num_nodes":"5","size_leaf_vector":"1"}},{"base_weights":[-1.4527023E-8,-2.5623527E-1,3.869362E-1,-3.869362E-1,-1.5002168E-9,8.886076E-3,2.5226606E-2,-8.886075E-3,-2.5226606E-2],"categories":[],"categories_nodes":[],"categories_segments":[],"categories_sizes":[],"default_left":[0,0,0,0,0,0,0,0,0],"id":18,"left_children":[1,3,5,7,-1,-1,-1,-1,-1],"loss_changes":[1.2247986E0,2.4889517E-1,3.1416774E-2,3.1416833E-2,0E0,0E0,0E0,0E0,0E0],"parents":[2147483647,0,0,1,1,2,2,3,3],"right_children":[2,4,6,8,-1,-1,-1,-1,-1],"split_conditions":[4.4E0,-1.6E0,9E0,4E0,-1.5002168E-9,8.886076E-3,2.5226606E-2,-8.886075E-3,-2.5226606E-2],"split_indices":[1,1,0,0,0,0,0,0,0],"split_type":[0,0,0,0,0,0,0,0,0],"sum_hessian":[1.0353399E1,6.4318867E0,3.9215124E0,3.9215124E0,2.510374E0,2.3147085E0,1.6068039E0,2.3147085E0,1.6068039E0],"tree_param":{"num_deleted":"0","num_feature":"8","num_nodes":"9","size_leaf_vector":"1"}},{"base_weights":[4.8676583E-9,-3.855318E-1,2.5464296E-1,-9.104637E-3,-2.4809234E-2,7.8099466E-10,3.855318E-1,9.104637E-3,2.4809234E-2],"categories":[],"categories_nodes":[],"categories_segments":[],"categories_sizes":[],"default_left":[0,0,0,0,0,0,0,0,0],"id":19,"left_children":[1,3,5,-1,-1,-1,7,-1,-1],"loss_changes":[1.2014749E0,1.9233763E-2,2.4565116E-1,0E0,0E0,0E0,1.9233763E-2,0E0,0E0],"parents":[2147483647,0,0,1,1,2,2,6,6],"right_children":[2,4,6,-1,-1,-1,8,-1,-1],"split_conditions":[-1.6E0,4E0,4.4E0,-9.104637E-3,-2.4809234E-2,7.8099466E-10,9E0,9.104637E-3,2.4809234E-2],"split_indices":[1,0,1,0,0,0,0,0,0],"split_type":[0,0,0,0,0,0,0,0,0],"sum_hessian":[1.0238348E1,3.8680596E0,6.370288E0,2.294734E0,1.5733256E0,2.5022283E0,3.8680596E0,2.294734E0,1.5733256E0],"tree_param":{"num_deleted":"0","num_feature":"8","num_nodes":"9","size_leaf_vector":"1"}},{"base_weights":[7.9040445E-9,-3.8360345E-1,2.5284654E-1,-9.251885E-3,-2.442422E-2,4.06019E-10,3.8360345E-1,9.251886E-3,2.442422E-2],"categories":[],"categories_nodes":[],"categories_segments":[],"categories_sizes":[],"default_left":[0,0,0,0,0,0,0,0,0],"id":20,"left_children":[1,3,5,-1,-1,-1,7,-1,-1],"loss_changes":[1.1763611E0,9.9567175E-3,2.416802E-1,0E0,0E0,0E0,9.9567175E-3,0E0,0E0],"parents":[2147483647,0,0,1,1,2,2,6,6],"right_children":[2,4,6,-1,-1,-1,8,-1,-1],"split_conditions":[-1.6E0,4E0,4.4E0,-9.251885E-3,-2.442422E-2,4.06019E-10,9E0,9.251886E-3,2.442422E-2],"split_indices":[1,0,1,0,0,0,0,0,0],"split_type":[0,0,0,0,0,0,0,0,0],"sum_hessian":[1.0128334E1,3.8183002E0,6.310034E0,2.2751462E0,1.5431541E0,2.4917333E0,3.8183002E0,2.2751462E0,1.5431541E0],"tree_param":{"num_deleted":"0","num_feature":"8","num_nodes":"9","size_leaf_vector":"1"}},{"base_weights":[2.6617362E-9,-3.8131437E-1,2.509186E-1,-9.346858E-3,-2.4065947E-2,4.2158899E-10,3.813144E-1,9.346858E-3,2.4065949E-2],"categories":[],"categories_nodes":[],"categories_segments":[],"categories_sizes":[],"default_left":[0,0,0,0,0,0,0,0,0],"id":21,"left_children":[1,3,5,-1,-1,-1,7,-1,-1],"loss_changes":[1.1503216E0,2.775669E-3,2.3724973E-1,0E0,0E0,0E0,2.775669E-3,0E0,0E0],"parents":[2147483647,0,0,1,1,2,2,6,6],"right_children":[2,4,6,-1,-1,-1,8,-1,-1],"split_conditions":[-1.6E0,4E0,4.4E0,-9.346858E-3,-2.4065947E-2,4.2158899E-10,9E0,9.346858E-3,2.4065949E-2],"split_indices":[1,0,1,0,0,0,0,0,0],"split_type":[0,0,0,0,0,0,0,0,0],"sum_hessian":[1.0022733E1,3.7715437E0,6.251189E0,2.2559593E0,1.5155845E0,2.4796457E0,3.7715435E0,2.2559593E0,1.5155843E0],"tree_param":{"num_deleted":"0","num_feature":"8","num_nodes":"9","size_leaf_vector":"1"}},{"base_weights":[1.3690907E-8,-1.8938927E-2,2.4890898E-1,4.3718415E-10,1.8938929E-2],"categories":[],"categories_nodes":[],"categories_segments":[],"categories_sizes":[],"default_left":[0,0,0,0,0],"id":22,"left_children":[1,-1,3,-1,-1],"loss_changes":[1.1239336E0,0E0,2.3254374E-1,0E0,0E0],"parents":[2147483647,0,0,2,2],"right_children":[2,-1,4,-1,-1],"split_conditions":[-1.6E0,-1.8938927E-2,4.4E0,4.3718415E-10,1.8938929E-2],"split_indices":[1,0,1,0,0],"split_type":[0,0,0,0,0],"sum_hessian":[9.921055E0,3.7272844E0,6.1937704E0,2.466486E0,3.7272844E0],"tree_param":{"num_deleted":"0","num_feature":"8","num_nodes":"5","size_leaf_vector":"1"}},{"base_weights":[-2.888597E-9,-3.6581364E-1,2.4218488E-1,-8.312057E-3,-2.377034E-2,-4.592057E-10,3.6581364E-1,8.312057E-3,2.377034E-2],"categories":[],"categories_nodes":[],"categories_segments":[],"categories_sizes":[],"default_left":[0,0,0,0,0,0,0,0,0],"id":23,"left_children":[1,3,5,-1,-1,-1,7,-1,-1],"loss_changes":[1.0474495E0,2.3971975E-2,2.1298552E-1,0E0,0E0,0E0,2.3971975E-2,0E0,0E0],"parents":[2147483647,0,0,1,1,2,2,6,6],"right_children":[2,4,6,-1,-1,-1,8,-1,-1],"split_conditions":[-1.6E0,4E0,4.4E0,-8.312057E-3,-2.377034E-2,-4.592057E-10,9E0,8.312057E-3,2.377034E-2],"split_indices":[1,0,1,0,0,0,0,0,0],"split_type":[0,0,0,0,0,0,0,0,0],"sum_hessian":[9.822958E0,3.709455E0,6.1135025E0,2.2071183E0,1.5023367E0,2.4040477E0,3.709455E0,2.2071183E0,1.5023367E0],"tree_param":{"num_deleted":"0","num_feature":"8","num_nodes":"9","size_leaf_vector":"1"}},{"base_weights":[-3.0021652E-9,-3.64464E-1,2.4077375E-1,-8.476808E-3,-2.3425067E-2,-4.7408216E-10,3.64464E-1,8.476808E-3,2.3425067E-2],"categories":[],"categories_nodes":[],"categories_segments":[],"categories_sizes":[],"default_left":[0,0,0,0,0,0,0,0,0],"id":24,"left_children":[1,3,5,-1,-1,-1,7,-1,-1],"loss_changes":[1.0291798E0,1.51901245E-2,2.1032977E-1,0E0,0E0,0E0,1.51901245E-2,0E0,0E0],"parents":[2147483647,0,0,1,1,2,2,6,6],"right_children":[2,4,6,-1,-1,-1,8,-1,-1],"split_conditions":[-1.6E0,4E0,4.4E0,-8.476808E-3,-2.3425067E-2,-4.7408216E-10,9E0,8.476808E-3,2.3425067E-2],"split_indices":[1,0,1,0,0,0,0,0,0],"split_type":[0,0,0,0,0,0,0,0,0],"sum_hessian":[9.728095E0,3.6656334E0,6.062462E0,2.190677E0,1.4749565E0,2.3968284E0,3.6656334E0,2.190677E0,1.4749565E0],"tree_param":{"num_deleted":"0","num_feature":"8","num_nodes":"9","size_leaf_vector":"1"}},{"base_weights":[8.719446E-9,-3.627947E-1,2.3924047E-1,-8.596285E-3,-2.3101773E-2,4.8903087E-10,3.627947E-1,8.596286E-3,2.3101773E-2],"categories":[],"categories_nodes":[],"categories_segments":[],"categories_sizes":[],"default_left":[0,0,0,0,0,0,0,0,0],"id":25,"left_children":[1,3,5,-1,-1,-1,7,-1,-1],"loss_changes":[1.0099696E0,8.153498E-3,2.0727366E-1,0E0,0E0,0E0,8.153498E-3,0E0,0E0],"parents":[2147483647,0,0,1,1,2,2,6,6],"right_children":[2,4,6,-1,-1,-1,8,-1,-1],"split_conditions":[-1.6E0,4E0,4.4E0,-8.596285E-3,-2.3101773E-2,4.8903087E-10,9E0,8.596286E-3,2.3101773E-2],"split_indices":[1,0,1,0,0,0,0,0,0],"split_type":[0,0,0,0,0,0,0,0,0],"sum_hessian":[9.636242E0,3.624082E0,6.0121603E0,2.1744294E0,1.4496527E0,2.388078E0,3.624082E0,2.1744294E0,1.4496527E0],"tree_param":{"num_deleted":"0","num_feature":"8","num_nodes":"9","size_leaf_vector":"1"}},{"base_weights":[3.2287908E-9,-3.6088958E-1,2.3762266E-1,-8.680459E-3,-2.2797324E-2,5.0403315E-10,3.6088958E-1,8.680459E-3,2.2797324E-2],"categories":[],"categories_nodes":[],"categories_segments":[],"categories_sizes":[],"default_left":[0,0,0,0,0,0,0,0,0],"id":26,"left_children":[1,3,5,-1,-1,-1,7,-1,-1],"loss_changes":[9.902284E-1,2.4573207E-3,2.0394304E-1,0E0,0E0,0E0,2.4573207E-3,0E0,0E0],"parents":[2147483647,0,0,1,1,2,2,6,6],"right_children":[2,4,6,-1,-1,-1,8,-1,-1],"split_conditions":[-1.6E0,4E0,4.4E0,-8.680459E-3,-2.2797324E-2,5.0403315E-10,9E0,8.680459E-3,2.2797324E-2],"split_indices":[1,0,1,0,0,0,0,0,0],"split_type":[0,0,0,0,0,0,0,0,0],"sum_hessian":[9.547106E0,3.5844574E0,5.962648E0,2.1583881E0,1.4260694E0,2.3781905E0,3.5844574E0,2.1583881E0,1.4260694E0],"tree_param":{"num_deleted":"0","num_feature":"8","num_nodes":"9","size_leaf_vector":"1"}},{"base_weights":[-0E0,-2.3594818E-1,1.7940575E-2,-1.7940577E-2,-0E0],"categories":[],"categories_nodes":[],"categories_segments":[],"categories_sizes":[],"default_left":[0,0,0,0,0],"id":27,"left_children":[1,3,-1,-1,-1],"loss_changes":[9.702517E-1,2.0043114E-1,0E0,0E0,0E0],"parents":[2147483647,0,0,1,1],"right_children":[2,4,-1,-1,-1],"split_conditions":[4.4E0,-1.6E0,1.7940575E-2,-1.7940577E-2,-0E0],"split_indices":[1,1,0,0,0],"split_type":[0,0,0,0,0],"sum_hessian":[9.4604435E0,5.9139504E0,3.5464928E0,3.5464926E0,2.3674579E0],"tree_param":{"num_deleted":"0","num_feature":"8","num_nodes":"5","size_leaf_vector":"1"}},{"base_weights":[-1.5505982E-8,-3.4811515E-1,2.3031795E-1,-7.847704E-3,-2.2542166E-2,2.7023347E-10,3.481151E-1,7.847703E-3,2.2542162E-2],"categories":[],"categories_nodes":[],"categories_segments":[],"categories_sizes":[],"default_left":[0,0,0,0,0,0,0,0,0],"id":28,"left_children":[1,3,5,-1,-1,-1,7,-1,-1],"loss_changes":[9.120865E-1,1.8188894E-2,1.8574518E-1,0E0,0E0,0E0,1.8188953E-2,0E0,0E0],"parents":[2147483647,0,0,1,1,2,2,6,6],"right_children":[2,4,6,-1,-1,-1,8,-1,-1],"split_conditions":[-1.6E0,4E0,4.4E0,-7.847704E-3,-2.2542166E-2,2.7023347E-10,9E0,7.847703E-3,2.2542162E-2],"split_indices":[1,0,1,0,0,0,0,0,0],"split_type":[0,0,0,0,0,0,0,0,0],"sum_hessian":[9.375888E0,3.5296016E0,5.846287E0,2.1173682E0,1.4122332E0,2.3166852E0,3.5296016E0,2.1173682E0,1.4122332E0],"tree_param":{"num_deleted":"0","num_feature":"8","num_nodes":"9","size_leaf_vector":"1"}},{"base_weights":[-1.6260433E-8,-3.468467E-1,2.2906208E-1,-7.977221E-3,-2.2247514E-2,-2.7747812E-10,3.4684664E-1,7.977221E-3,2.2247512E-2],"categories":[],"categories_nodes":[],"categories_segments":[],"categories_sizes":[],"default_left":[0,0,0,0,0,0,0,0,0],"id":29,"left_children":[1,3,5,-1,-1,-1,7,-1,-1],"loss_changes":[8.97275E-1,1.1550248E-2,1.8351021E-1,0E0,0E0,0E0,1.1550248E-2,0E0,0E0],"parents":[2147483647,0,0,1,1,2,2,6,6],"right_children":[2,4,6,-1,-1,-1,8,-1,-1],"split_conditions":[-1.6E0,4E0,4.4E0,-7.977221E-3,-2.2247514E-2,-2.7747812E-10,9E0,7.977221E-3,2.2247512E-2],"split_indices":[1,0,1,0,0,0,0,0,0],"split_type":[0,0,0,0,0,0,0,0,0],"sum_hessian":[9.293662E0,3.4919438E0,5.8017187E0,2.1030412E0,1.3889028E0,2.3097744E0,3.491944E0,2.1030412E0,1.3889029E0],"tree_param":{"num_deleted":"0","num_feature":"8","num_nodes":"9","size_leaf_vector":"1"}},{"base_weights":[-1.8271958E-8,-2.2772713E-1,3.4536636E-1,-3.453664E-1,-5.6951305E-10,8.075695E-3,2.1968795E-2,-8.075695E-3,-2.1968797E-2],"categories":[],"categories_nodes":[],"categories_segments":[],"categories_sizes":[],"default_left":[0,0,0,0,0,0,0,0,0],"id":30,"left_children":[1,3,5,7,-1,-1,-1,-1,-1],"loss_changes":[8.819306E-1,1.8103442E-1,6.048739E-3,6.0487986E-3,0E0,0E0,0E0,0E0,0E0],"parents":[2147483647,0,0,1,1,2,2,3,3],"right_children":[2,4,6,8,-1,-1,-1,-1,-1],"split_conditions":[4.4E0,-1.6E0,9E0,4E0,-5.6951305E-10,8.075695E-3,2.1968795E-2,-8.075695E-3,-2.1968797E-2],"split_indices":[1,1,0,0,0,0,0,0,0],"split_type":[0,0,0,0,0,0,0,0,0],"sum_hessian":[9.213459E0,5.7576265E0,3.455833E0,3.455833E0,2.3017938E0,2.0888233E0,1.3670095E0,2.0888233E0,1.3670095E0],"tree_param":{"num_deleted":"0","num_feature":"8","num_nodes":"9","size_leaf_vector":"1"}},{"base_weights":[-1.5745137E-8,-3.4372258E-1,2.2633485E-1,-8.148964E-3,-2.1704068E-2,2.9206235E-10,3.4372255E-1,8.148964E-3,2.1704067E-2],"categories":[],"categories_nodes":[],"categories_segments":[],"categories_sizes":[],"default_left":[0,0,0,0,0,0,0,0,0],"id":31,"left_children":[1,3,5,-1,-1,-1,7,-1,-1],"loss_changes":[8.6627233E-1,1.457572E-3,1.7838505E-1,0E0,0E0,0E0,1.4575124E-3,0E0,0E0],"parents":[2147483647,0,0,1,1,2,2,6,6],"right_children":[2,4,6,-1,-1,-1,8,-1,-1],"split_conditions":[-1.6E0,4E0,4.4E0,-8.148964E-3,-2.1704068E-2,2.9206235E-10,9E0,8.148964E-3,2.1704067E-2],"split_indices":[1,0,1,0,0,0,0,0,0],"split_type":[0,0,0,0,0,0,0,0,0],"sum_hessian":[9.135121E0,3.4210744E0,5.714047E0,2.0747247E0,1.3463496E0,2.292973E0,3.421074E0,2.0747244E0,1.3463496E0],"tree_param":{"num_deleted":"0","num_feature":"8","num_nodes":"9","size_leaf_vector":"1"}},{"base_weights":[-5.9257905E-9,-1.7097661E-2,2.2490223E-1,-0E0,1.709766E-2],"categories":[],"categories_nodes":[],"categories_segments":[],"categories_sizes":[],"default_left":[0,0,0,0,0],"id":32,"left_children":[1,-1,3,-1,-1],"loss_changes":[8.504666E-1,0E0,1.7561427E-1,0E0,0E0],"parents":[2147483647,0,0,2,2],"right_children":[2,-1,4,-1,-1],"split_conditions":[-1.6E0,-1.7097661E-2,4.4E0,-0E0,1.709766E-2],"split_indices":[1,0,1,0,0],"split_type":[0,0,0,0,0],"sum_hessian":[9.058514E0,3.3875108E0,5.671003E0,2.2834916E0,3.3875113E0],"tree_param":{"num_deleted":"0","num_feature":"8","num_nodes":"5","size_leaf_vector":"1"}},{"base_weights":[9.736306E-10,-2.2005539E-1,3.3283696E-1,-3.3283696E-1,-3.098776E-10,7.4512647E-3,2.1480327E-2,-7.4512637E-3,-2.1480327E-2],"categories":[],"categories_nodes":[],"categories_segments":[],"categories_sizes":[],"default_left":[0,0,0,0,0,0,0,0,0],"id":33,"left_children":[1,3,5,7,-1,-1,-1,-1,-1],"loss_changes":[8.044311E-1,1.6409159E-1,1.373288E-2,1.373291E-2,0E0,0E0,0E0,0E0,0E0],"parents":[2147483647,0,0,1,1,2,2,3,3],"right_children":[2,4,6,8,-1,-1,-1,-1,-1],"split_conditions":[4.4E0,-1.6E0,9E0,4E0,-3.098776E-10,7.4512647E-3,2.1480327E-2,-7.4512637E-3,-2.1480327E-2],"split_indices":[1,1,0,0,0,0,0,0,0],"split_type":[0,0,0,0,0,0,0,0,0],"sum_hessian":[8.983109E0,5.6117477E0,3.3713615E0,3.3713615E0,2.2403862E0,2.0387683E0,1.3325932E0,2.0387683E0,1.3325932E0],"tree_param":{"num_deleted":"0","num_feature":"8","num_nodes":"9","size_leaf_vector":"1"}},{"base_weights":[-5.0760502E-9,-3.316622E-1,2.1893604E-1,-7.557129E-3,-2.1222929E-2,-3.1698208E-10,3.3166218E-1,7.5571276E-3,2.1222929E-2],"categories":[],"categories_nodes":[],"categories_segments":[],"categories_sizes":[],"default_left":[0,0,0,0,0,0,0,0,0],"id":34,"left_children":[1,3,5,-1,-1,-1,7,-1,-1],"loss_changes":[7.921834E-1,8.515358E-3,1.621868E-1,0E0,0E0,0E0,8.515447E-3,0E0,0E0],"parents":[2147483647,0,0,1,1,2,2,6,6],"right_children":[2,4,6,-1,-1,-1,8,-1,-1],"split_conditions":[-1.6E0,4E0,4.4E0,-7.557129E-3,-2.1222929E-2,-3.1698208E-10,9E0,7.5571276E-3,2.1222929E-2],"split_indices":[1,0,1,0,0,0,0,0,0],"split_type":[0,0,0,0,0,0,0,0,0],"sum_hessian":[8.909691E0,3.3380532E0,5.5716376E0,2.0258534E0,1.3122E0,2.2335842E0,3.3380537E0,2.0258536E0,1.3122E0],"tree_param":{"num_deleted":"0","num_feature":"8","num_nodes":"9","size_leaf_vector":"1"}},{"base_weights":[-2.125697E-9,-3.3033738E-1,2.177619E-1,-7.6403916E-3,-2.097766E-2,-3.241185E-10,3.3033738E-1,7.6403916E-3,2.097766E-2],"categories":[],"categories_nodes":[],"categories_segments":[],"categories_sizes":[],"default_left":[0,0,0,0,0,0,0,0,0],"id":35,"left_children":[1,3,5,-1,-1,-1,7,-1,-1],"loss_changes":[7.796127E-1,4.0873587E-3,1.6012663E-1,0E0,0E0,0E0,4.0873587E-3,0E0,0E0],"parents":[2147483647,0,0,1,1,2,2,6,6],"right_children":[2,4,6,-1,-1,-1,8,-1,-1],"split_conditions":[-1.6E0,4E0,4.4E0,-7.6403916E-3,-2.097766E-2,-3.241185E-10,9E0,7.6403916E-3,2.097766E-2],"split_indices":[1,0,1,0,0,0,0,0,0],"split_type":[0,0,0,0,0,0,0,0,0],"sum_hessian":[8.837753E0,3.30588E0,5.5318737E0,2.0130074E0,1.2928728E0,2.2259934E0,3.30588E0,2.0130074E0,1.2928728E0],"tree_param":{"num_deleted":"0","num_feature":"8","num_nodes":"9","size_leaf_vector":"1"}},{"base_weights":[-1.7369562E-9,-3.2889283E-1,2.1654665E-1,-7.7047683E-3,-2.0743225E-2,6.6256395E-10,3.288928E-1,7.704768E-3,2.0743225E-2],"categories":[],"categories_nodes":[],"categories_segments":[],"categories_sizes":[],"default_left":[0,0,0,0,0,0,0,0,0],"id":36,"left_children":[1,3,5,-1,-1,-1,7,-1,-1],"loss_changes":[7.6684713E-1,3.1027198E-4,1.5795028E-1,0E0,0E0,0E0,3.1024218E-4,0E0,0E0],"parents":[2147483647,0,0,1,1,2,2,6,6],"right_children":[2,4,6,-1,-1,-1,8,-1,-1],"split_conditions":[-1.6E0,4E0,4.4E0,-7.7047683E-3,-2.0743225E-2,6.6256395E-10,9E0,7.704768E-3,2.0743225E-2],"split_indices":[1,0,1,0,0,0,0,0,0],"split_type":[0,0,0,0,0,0,0,0,0],"sum_hessian":[8.767204E0,3.2747219E0,5.492482E0,2.000238E0,1.2744839E0,2.2177603E0,3.2747219E0,2.000238E0,1.2744839E0],"tree_param":{"num_deleted":"0","num_feature":"8","num_nodes":"9","size_leaf_vector":"1"}},{"base_weights":[-1.4532147E-8,-1.6367653E-2,2.1530128E-1,-3.3846834E-10,1.6367652E-2],"categories":[],"categories_nodes":[],"categories_segments":[],"categories_sizes":[],"default_left":[0,0,0,0,0],"id":37,"left_children":[1,-1,3,-1,-1],"loss_changes":[7.5398743E-1,0E0,1.556896E-1,0E0,0E0],"parents":[2147483647,0,0,2,2],"right_children":[2,-1,4,-1,-1],"split_conditions":[-1.6E0,-1.6367653E-2,4.4E0,-3.3846834E-10,1.6367652E-2],"split_indices":[1,0,1,0,0],"split_type":[0,0,0,0,0],"sum_hessian":[8.697963E0,3.2444792E0,5.453483E0,2.209004E0,3.2444792E0],"tree_param":{"num_deleted":"0","num_feature":"8","num_nodes":"5","size_leaf_vector":"1"}},{"base_weights":[1.0082268E-8,-3.1940377E-1,2.1104634E-1,-7.104428E-3,-2.0544084E-2,-3.488147E-10,3.1940383E-1,7.104428E-3,2.0544088E-2],"categories":[],"categories_nodes":[],"categories_segments":[],"categories_sizes":[],"default_left":[0,0,0,0,0,0,0,0,0],"id":38,"left_children":[1,3,5,-1,-1,-1,7,-1,-1],"loss_changes":[7.165117E-1,1.0214686E-2,1.4636514E-1,0E0,0E0,0E0,1.0214746E-2,0E0,0E0],"parents":[2147483647,0,0,1,1,2,2,6,6],"right_children":[2,4,6,-1,-1,-1,8,-1,-1],"split_conditions":[-1.6E0,4E0,4.4E0,-7.104428E-3,-2.0544084E-2,-3.488147E-10,9E0,7.104428E-3,2.0544088E-2],"split_indices":[1,0,1,0,0,0,0,0,0],"split_type":[0,0,0,0,0,0,0,0,0],"sum_hessian":[8.629318E0,3.2290096E0,5.400309E0,1.9678684E0,1.2611412E0,2.1712995E0,3.2290096E0,1.9678684E0,1.2611411E0],"tree_param":{"num_deleted":"0","num_feature":"8","num_nodes":"9","size_leaf_vector":"1"}},{"base_weights":[-3.878151E-9,-3.1832272E-1,2.1004617E-1,-7.193693E-3,-2.0315219E-2,3.5581302E-10,3.183227E-1,7.1936916E-3,2.0315219E-2],"categories":[],"categories_nodes":[],"categories_segments":[],"categories_sizes":[],"default_left":[0,0,0,0,0,0,0,0,0],"id":39,"left_children":[1,3,5,-1,-1,-1,7,-1,-1],"loss_changes":[7.0623726E-1,5.9909523E-3,1.4472637E-1,0E0,0E0,0E0,5.9909523E-3,0E0,0E0],"parents":[2147483647,0,0,1,1,2,2,6,6],"right_children":[2,4,6,-1,-1,-1,8,-1,-1],"split_conditions":[-1.6E0,4E0,4.4E0,-7.193693E-3,-2.0315219E-2,3.5581302E-10,9E0,7.1936916E-3,2.0315219E-2],"split_indices":[1,0,1,0,0,0,0,0,0],"split_type":[0,0,0,0,0,0,0,0,0],"sum_hessian":[8.562537E0,3.1989992E0,5.363538E0,1.9559796E0,1.2430196E0,2.1645389E0,3.1989992E0,1.9559796E0,1.2430196E0],"tree_param":{"num_deleted":"0","num_feature":"8","num_nodes":"9","size_leaf_vector":"1"}},{"base_weights":[-3.1381064E-9,-3.1712955E-1,2.0900579E-1,-7.2657294E-3,-2.0095935E-2,-0E0,3.1712955E-1,7.265729E-3,2.0095937E-2],"categories":[],"categories_nodes":[],"categories_segments":[],"categories_sizes":[],"default_left":[0,0,0,0,0,0,0,0,0],"id":40,"left_children":[1,3,5,-1,-1,-1,7,-1,-1],"loss_changes":[6.957555E-1,2.3421645E-3,1.4298165E-1,0E0,0E0,0E0,2.3421943E-3,0E0,0E0],"parents":[2147483647,0,0,1,1,2,2,6,6],"right_children":[2,4,6,-1,-1,-1,8,-1,-1],"split_conditions":[-1.6E0,4E0,4.4E0,-7.2657294E-3,-2.0095935E-2,-0E0,9E0,7.265729E-3,2.0095937E-2],"split_indices":[1,0,1,0,0,0,0,0,0],"split_type":[0,0,0,0,0,0,0,0,0],"sum_hessian":[8.496912E0,3.169869E0,5.3270435E0,1.9441395E0,1.2257295E0,2.1571746E0,3.169869E0,1.9441395E0,1.2257293E0],"tree_param":{"num_deleted":"0","num_feature":"8","num_nodes":"9","size_leaf_vector":"1"}},{"base_weights":[-3.8491144E-9,-1.5792232E-2,2.079344E-1,3.6989614E-10,1.5792234E-2],"categories":[],"categories_nodes":[],"categories_segments":[],"categories_sizes":[],"default_left":[0,0,0,0,0],"id":41,"left_children":[1,-1,3,-1,-1],"loss_changes":[6.8514645E-1,0E0,1.4115557E-1,0E0,0E0],"parents":[2147483647,0,0,2,2],"right_children":[2,-1,4,-1,-1],"split_conditions":[-1.6E0,-1.5792232E-2,4.4E0,3.6989614E-10,1.5792234E-2],"split_indices":[1,0,1,0,0],"split_type":[0,0,0,0,0],"sum_hessian":[8.4323845E0,3.1415393E0,5.290845E0,2.1493058E0,3.141539E0],"tree_param":{"num_deleted":"0","num_feature":"8","num_nodes":"5","size_leaf_vector":"1"}},{"base_weights":[2.5277909E-9,-3.086754E-1,2.0407805E-1,-6.7406218E-3,-1.9908672E-2,3.8011147E-10,3.086754E-1,6.7406218E-3,1.990867E-2],"categories":[],"categories_nodes":[],"categories_segments":[],"categories_sizes":[],"default_left":[0,0,0,0,0,0,0,0,0],"id":42,"left_children":[1,3,5,-1,-1,-1,7,-1,-1],"loss_changes":[6.531513E-1,1.0534406E-2,1.3323733E-1,0E0,0E0,0E0,1.0534376E-2,0E0,0E0],"parents":[2147483647,0,0,1,1,2,2,6,6],"right_children":[2,4,6,-1,-1,-1,8,-1,-1],"split_conditions":[-1.6E0,4E0,4.4E0,-6.7406218E-3,-1.9908672E-2,3.8011147E-10,9E0,6.7406218E-3,1.990867E-2],"split_indices":[1,0,1,0,0,0,0,0,0],"split_type":[0,0,0,0,0,0,0,0,0],"sum_hessian":[8.368489E0,3.1267028E0,5.241787E0,1.9142702E0,1.2124325E0,2.115084E0,3.1267028E0,1.9142702E0,1.2124326E0],"tree_param":{"num_deleted":"0","num_feature":"8","num_nodes":"9","size_leaf_vector":"1"}},{"base_weights":[-3.878499E-9,-2.0320587E-1,3.07757E-1,-3.07757E-1,-5.805078E-10,6.830193E-3,1.9694857E-2,-6.830193E-3,-1.9694855E-2],"categories":[],"categories_nodes":[],"categories_segments":[],"categories_sizes":[],"default_left":[0,0,0,0,0,0,0,0,0],"id":43,"left_children":[1,3,5,7,-1,-1,-1,-1,-1],"loss_changes":[6.4451754E-1,1.3187853E-1,6.6186786E-3,6.618619E-3,0E0,0E0,0E0,0E0,0E0],"parents":[2147483647,0,0,1,1,2,2,3,3],"right_children":[2,4,6,8,-1,-1,-1,-1,-1],"split_conditions":[4.4E0,-1.6E0,9E0,4E0,-5.805078E-10,6.830193E-3,1.9694857E-2,-6.830193E-3,-1.9694855E-2],"split_indices":[1,1,0,0,0,0,0,0,0],"split_type":[0,0,0,0,0,0,0,0,0],"sum_hessian":[8.306009E0,5.2073913E0,3.0986176E0,3.0986178E0,2.1087735E0,1.9031175E0,1.1955001E0,1.9031175E0,1.1955003E0],"tree_param":{"num_deleted":"0","num_feature":"8","num_nodes":"9","size_leaf_vector":"1"}},{"base_weights":[-0E0,-3.0673742E-1,2.022964E-1,-6.9043934E-3,-1.948951E-2,-0E0,3.0673742E-1,6.9043934E-3,1.948951E-2],"categories":[],"categories_nodes":[],"categories_segments":[],"categories_sizes":[],"default_left":[0,0,0,0,0,0,0,0,0],"id":44,"left_children":[1,3,5,-1,-1,-1,7,-1,-1],"loss_changes":[6.3569164E-1,3.20068E-3,1.3042799E-1,0E0,0E0,0E0,3.20068E-3,0E0,0E0],"parents":[2147483647,0,0,1,1,2,2,6,6],"right_children":[2,4,6,-1,-1,-1,8,-1,-1],"split_conditions":[-1.6E0,4E0,4.4E0,-6.9043934E-3,-1.948951E-2,-0E0,9E0,6.9043934E-3,1.948951E-2],"split_indices":[1,0,1,0,0,0,0,0,0],"split_type":[0,0,0,0,0,0,0,0,0],"sum_hessian":[8.244519E0,3.0713003E0,5.173219E0,1.8919996E0,1.1793007E0,2.101919E0,3.0713003E0,1.8919996E0,1.1793007E0],"tree_param":{"num_deleted":"0","num_feature":"8","num_nodes":"9","size_leaf_vector":"1"}},{"base_weights":[-3.78847E-9,-3.056333E-1,2.0135735E-1,-6.965302E-3,-1.929187E-2,4.008824E-10,3.056333E-1,6.9653005E-3,1.929187E-2],"categories":[],"categories_nodes":[],"categories_segments":[],"categories_sizes":[],"default_left":[0,0,0,0,0,0,0,0,0],"id":45,"left_children":[1,3,5,-1,-1,-1,7,-1,-1],"loss_changes":[6.267372E-1,2.0718575E-4,1.2890498E-1,0E0,0E0,0E0,2.0718575E-4,0E0,0E0],"parents":[2147483647,0,0,1,1,2,2,6,6],"right_children":[2,4,6,-1,-1,-1,8,-1,-1],"split_conditions":[-1.6E0,4E0,4.4E0,-6.965302E-3,-1.929187E-2,4.008824E-10,9E0,6.9653005E-3,1.929187E-2],"split_indices":[1,0,1,0,0,0,0,0,0],"split_type":[0,0,0,0,0,0,0,0,0],"sum_hessian":[8.183974E0,3.0446863E0,5.1392884E0,1.8809224E0,1.1637638E0,2.094602E0,3.0446863E0,1.8809224E0,1.1637638E0],"tree_param":{"num_deleted":"0","num_feature":"8","num_nodes":"9","size_leaf_vector":"1"}},{"base_weights":[5.1526468E-9,-2.0039493E-1,1.5222927E-2,-1.5222927E-2,-2.0392972E-10],"categories":[],"categories_nodes":[],"categories_segments":[],"categories_sizes":[],"default_left":[0,0,0,0,0],"id":46,"left_children":[1,3,-1,-1,-1],"loss_changes":[6.177053E-1,1.2732531E-1,0E0,0E0,0E0],"parents":[2147483647,0,0,1,1],"right_children":[2,4,-1,-1,-1],"split_conditions":[4.4E0,-1.6E0,1.5222927E-2,-1.5222927E-2,-2.0392972E-10],"split_indices":[1,1,0,0,0],"split_type":[0,0,0,0,0],"sum_hessian":[8.124333E0,5.1056128E0,3.0187206E0,3.0187206E0,2.086892E0],"tree_param":{"num_deleted":"0","num_feature":"8","num_nodes":"5","size_leaf_vector":"1"}},{"base_weights":[1.4091939E-9,-2.9801926E-1,1.9692223E-1,-6.4952816E-3,-1.9122722E-2,2.0901085E-10,2.9801926E-1,6.495282E-3,1.912272E-2],"categories":[],"categories_nodes":[],"categories_segments":[],"categories_sizes":[],"default_left":[0,0,0,0,0,0,0,0,0],"id":47,"left_children":[1,3,5,-1,-1,-1,7,-1,-1],"loss_changes":[5.906714E-1,7.1596205E-3,1.2065089E-1,0E0,0E0,0E0,7.1595907E-3,0E0,0E0],"parents":[2147483647,0,0,1,1,2,2,6,6],"right_children":[2,4,6,-1,-1,-1,8,-1,-1],"split_conditions":[-1.6E0,4E0,4.4E0,-6.4952816E-3,-1.9122722E-2,2.0901085E-10,9E0,6.495282E-3,1.912272E-2],"split_indices":[1,0,1,0,0,0,0,0,0],"split_type":[0,0,0,0,0,0,0,0,0],"sum_hessian":[8.06484E0,3.0044951E0,5.060345E0,1.8532095E0,1.1512856E0,2.0558503E0,3.0044951E0,1.8532095E0,1.1512855E0],"tree_param":{"num_deleted":"0","num_feature":"8","num_nodes":"9","size_leaf_vector":"1"}},{"base_weights":[5.1792513E-9,-1.9612572E-1,2.9714778E-1,-2.971478E-1,-2.1242699E-10,6.5712593E-3,1.8929204E-2,-6.571259E-3,-1.8929204E-2],"categories":[],"categories_nodes":[],"categories_segments":[],"categories_sizes":[],"default_left":[0,0,0,0,0,0,0,0,0],"id":48,"left_children":[1,3,5,7,-1,-1,-1,-1,-1],"loss_changes":[5.8318657E-1,1.1943619E-1,3.9411187E-3,3.9411485E-3,0E0,0E0,0E0,0E0,0E0],"parents":[2147483647,0,0,1,1,2,2,3,3],"right_children":[2,4,6,8,-1,-1,-1,-1,-1],"split_conditions":[4.4E0,-1.6E0,9E0,4E0,-2.1242699E-10,6.5712593E-3,1.8929204E-2,-6.571259E-3,-1.8929204E-2],"split_indices":[1,1,0,0,0,0,0,0,0],"split_type":[0,0,0,0,0,0,0,0,0],"sum_hessian":[8.00692E0,5.0281653E0,2.978755E0,2.978755E0,2.0494103E0,1.8427018E0,1.1360533E0,1.8427016E0,1.1360533E0],"tree_param":{"num_deleted":"0","num_feature":"8","num_nodes":"9","size_leaf_vector":"1"}},{"base_weights":[-3.3299312E-9,-2.9619774E-1,1.9530073E-1,-6.635091E-3,-1.8742625E-2,-0E0,2.9619774E-1,6.635091E-3,1.8742627E-2],"categories":[],"categories_nodes":[],"categories_segments":[],"categories_sizes":[],"default_left":[0,0,0,0,0,0,0,0,0],"id":49,"left_children":[1,3,5,-1,-1,-1,7,-1,-1],"loss_changes":[5.7557416E-1,1.0991693E-3,1.1815645E-1,0E0,0E0,0E0,1.099199E-3,0E0,0E0],"parents":[2147483647,0,0,1,1,2,2,6,6],"right_children":[2,4,6,-1,-1,-1,8,-1,-1],"split_conditions":[-1.6E0,4E0,4.4E0,-6.635091E-3,-1.8742625E-2,-0E0,9E0,6.635091E-3,1.8742627E-2],"split_indices":[1,0,1,0,0,0,0,0,0],"split_type":[0,0,0,0,0,0,0,0,0],"sum_hessian":[7.9498315E0,2.9536428E0,4.9961886E0,1.8322254E0,1.1214173E0,2.042546E0,2.9536426E0,1.8322254E0,1.1214172E0],"tree_param":{"num_deleted":"0","num_feature":"8","num_nodes":"9","size_leaf_vector":"1"}},{"base_weights":[-3.3510077E-9,-1.4759039E-2,1.9445258E-1,-0E0,1.4759039E-2],"categories":[],"categories_nodes":[],"categories_segments":[],"categories_sizes":[],"default_left":[0,0,0,0,0],"id":50,"left_children":[1,-1,3,-1,-1],"loss_changes":[5.67876E-1,0E0,1.1682439E-1,0E0,0E0],"parents":[2147483647,0,0,2,2],"right_children":[2,-1,4,-1,-1],"split_conditions":[-1.6E0,-1.4759039E-2,4.4E0,-0E0,1.4759039E-2],"split_indices":[1,0,1,0,0],"split_type":[0,0,0,0,0],"sum_hessian":[7.8935404E0,2.9291124E0,4.964428E0,2.0353158E0,2.9291124E0],"tree_param":{"num_deleted":"0","num_feature":"8","num_nodes":"5","size_leaf_vector":"1"}},{"base_weights":[1.526444E-9,-2.892601E-1,1.9125228E-1,-6.2126797E-3,-1.8582335E-2,2.2434486E-10,2.8926012E-1,6.2126797E-3,1.8582337E-2],"categories":[],"categories_nodes":[],"categories_segments":[],"categories_sizes":[],"default_left":[0,0,0,0,0,0,0,0,0],"id":51,"left_children":[1,3,5,-1,-1,-1,7,-1,-1],"loss_changes":[5.442218E-1,7.04962E-3,1.1100234E-1,0E0,0E0,0E0,7.04962E-3,0E0,0E0],"parents":[2147483647,0,0,1,1,2,2,6,6],"right_children":[2,4,6,-1,-1,-1,8,-1,-1],"split_conditions":[-1.6E0,4E0,4.4E0,-6.2126797E-3,-1.8582335E-2,2.2434486E-10,9E0,6.2126797E-3,1.8582337E-2],"split_indices":[1,0,1,0,0,0,0,0,0],"split_type":[0,0,0,0,0,0,0,0,0],"sum_hessian":[7.837411E0,2.9154606E0,4.9219503E0,1.8061744E0,1.1092862E0,2.0064902E0,2.9154603E0,1.8061743E0,1.1092861E0],"tree_param":{"num_deleted":"0","num_feature":"8","num_nodes":"9","size_leaf_vector":"1"}},{"base_weights":[1.555891E-9,-2.8849745E-1,1.905447E-1,-6.2880055E-3,-1.8399725E-2,2.2772298E-10,2.8849745E-1,6.2880055E-3,1.8399725E-2],"categories":[],"categories_nodes":[],"categories_segments":[],"categories_sizes":[],"default_left":[0,0,0,0,0,0,0,0,0],"id":52,"left_children":[1,3,5,-1,-1,-1,7,-1,-1],"loss_changes":[5.377674E-1,4.061401E-3,1.09960675E-1,0E0,0E0,0E0,4.061401E-3,0E0,0E0],"parents":[2147483647,0,0,1,1,2,2,6,6],"right_children":[2,4,6,-1,-1,-1,8,-1,-1],"split_conditions":[-1.6E0,4E0,4.4E0,-6.2880055E-3,-1.8399725E-2,2.2772298E-10,9E0,6.2880055E-3,1.8399725E-2],"split_indices":[1,0,1,0,0,0,0,0,0],"split_type":[0,0,0,0,0,0,0,0,0],"sum_hessian":[7.782631E0,2.8911576E0,4.8914733E0,1.7961764E0,1.0949811E0,2.0003157E0,2.8911576E0,1.7961764E0,1.0949811E0],"tree_param":{"num_deleted":"0","num_feature":"8","num_nodes":"9","size_leaf_vector":"1"}},{"base_weights":[-4.999705E-9,-2.8766277E-1,1.898104E-1,-6.3523347E-3,-1.8223368E-2,-2.3111527E-10,2.8766274E-1,6.352334E-3,1.8223368E-2],"categories":[],"categories_nodes":[],"categories_segments":[],"categories_sizes":[],"default_left":[0,0,0,0,0,0,0,0,0],"id":53,"left_children":[1,3,5,-1,-1,-1,7,-1,-1],"loss_changes":[5.311946E-1,1.4042556E-3,1.0886189E-1,0E0,0E0,0E0,1.4042854E-3,0E0,0E0],"parents":[2147483647,0,0,1,1,2,2,6,6],"right_children":[2,4,6,-1,-1,-1,8,-1,-1],"split_conditions":[-1.6E0,4E0,4.4E0,-6.3523347E-3,-1.8223368E-2,-2.3111527E-10,9E0,6.352334E-3,1.8223368E-2],"split_indices":[1,0,1,0,0,0,0,0,0],"split_type":[0,0,0,0,0,0,0,0,0],"sum_hessian":[7.728592E0,2.8674169E0,4.8611746E0,1.7862052E0,1.0812118E0,1.9937576E0,2.8674173E0,1.7862053E0,1.0812119E0],"tree_param":{"num_deleted":"0","num_feature":"8","num_nodes":"9","size_leaf_vector":"1"}},{"base_weights":[-1.6148924E-9,-1.4338302E-2,1.8905397E-1,-2.345205E-10,1.4338302E-2],"categories":[],"categories_nodes":[],"categories_segments":[],"categories_sizes":[],"default_left":[0,0,0,0,0],"id":54,"left_children":[1,-1,3,-1,-1],"loss_changes":[5.2453756E-1,0E0,1.0771653E-1,0E0,0E0],"parents":[2147483647,0,0,2,2],"right_children":[2,-1,4,-1,-1],"split_conditions":[-1.6E0,-1.4338302E-2,4.4E0,-2.345205E-10,1.4338302E-2],"split_indices":[1,0,1,0,0],"split_type":[0,0,0,0,0],"sum_hessian":[7.675269E0,2.8442013E0,4.831068E0,1.9868665E0,2.8442013E0],"tree_param":{"num_deleted":"0","num_feature":"8","num_nodes":"5","size_leaf_vector":"1"}},{"base_weights":[1.6446375E-9,-2.8128412E-1,1.8608658E-1,-5.968393E-3,-1.807137E-2,2.3953867E-10,2.8128412E-1,5.968393E-3,1.807137E-2],"categories":[],"categories_nodes":[],"categories_segments":[],"categories_sizes":[],"default_left":[0,0,0,0,0,0,0,0,0],"id":55,"left_children":[1,3,5,-1,-1,-1,7,-1,-1],"loss_changes":[5.036503E-1,6.571293E-3,1.0258722E-1,0E0,0E0,0E0,6.5713227E-3,0E0,0E0],"parents":[2147483647,0,0,1,1,2,2,6,6],"right_children":[2,4,6,-1,-1,-1,8,-1,-1],"split_conditions":[-1.6E0,4E0,4.4E0,-5.968393E-3,-1.807137E-2,2.3953867E-10,9E0,5.968393E-3,1.807137E-2],"split_indices":[1,0,1,0,0,0,0,0,0],"split_type":[0,0,0,0,0,0,0,0,0],"sum_hessian":[7.6220765E0,2.83109E0,4.790986E0,1.7615663E0,1.0695238E0,1.9598961E0,2.8310902E0,1.7615663E0,1.0695239E0],"tree_param":{"num_deleted":"0","num_feature":"8","num_nodes":"9","size_leaf_vector":"1"}},{"base_weights":[1.0303605E-8,-2.806047E-1,1.8545124E-1,-6.04181E-3,-1.7898735E-2,4.8576854E-10,2.8060472E-1,6.04181E-3,1.7898737E-2],"categories":[],"categories_nodes":[],"categories_segments":[],"categories_sizes":[],"default_left":[0,0,0,0,0,0,0,0,0],"id":56,"left_children":[1,3,5,-1,-1,-1,7,-1,-1],"loss_changes":[4.9801344E-1,3.8167238E-3,1.0167816E-1,0E0,0E0,0E0,3.8167536E-3,0E0,0E0],"parents":[2147483647,0,0,1,1,2,2,6,6],"right_children":[2,4,6,-1,-1,-1,8,-1,-1],"split_conditions":[-1.6E0,4E0,4.4E0,-6.04181E-3,-1.7898735E-2,4.8576854E-10,9E0,6.04181E-3,1.7898737E-2],"split_indices":[1,0,1,0,0,0,0,0,0],"split_type":[0,0,0,0,0,0,0,0,0],"sum_hessian":[7.570099E0,2.8080978E0,4.762001E0,1.7520087E0,1.056089E0,1.9539033E0,2.8080978E0,1.7520087E0,1.056089E0],"tree_param":{"num_deleted":"0","num_feature":"8","num_nodes":"9","size_leaf_vector":"1"}},{"base_weights":[6.996841E-9,-2.7985975E-1,1.8479107E-1,-6.1052996E-3,-1.7731754E-2,-0E0,2.7985975E-1,6.105299E-3,1.7731754E-2],"categories":[],"categories_nodes":[],"categories_segments":[],"categories_sizes":[],"default_left":[0,0,0,0,0,0,0,0,0],"id":57,"left_children":[1,3,5,-1,-1,-1,7,-1,-1],"loss_changes":[4.9227E-1,1.35234E-3,1.0071963E-1,0E0,0E0,0E0,1.3523996E-3,0E0,0E0],"parents":[2147483647,0,0,1,1,2,2,6,6],"right_children":[2,4,6,-1,-1,-1,8,-1,-1],"split_conditions":[-1.6E0,4E0,4.4E0,-6.1052996E-3,-1.7731754E-2,-0E0,9E0,6.105299E-3,1.7731754E-2],"split_indices":[1,0,1,0,0,0,0,0,0],"split_type":[0,0,0,0,0,0,0,0,0],"sum_hessian":[7.518794E0,2.7856126E0,4.733181E0,1.7424761E0,1.0431366E0,1.9475683E0,2.7856128E0,1.7424762E0,1.0431366E0],"tree_param":{"num_deleted":"0","num_feature":"8","num_nodes":"9","size_leaf_vector":"1"}},{"base_weights":[1.785546E-9,-1.3952889E-2,1.8411009E-1,-2.4961594E-10,1.3952889E-2],"categories":[],"categories_nodes":[],"categories_segments":[],"categories_sizes":[],"default_left":[0,0,0,0,0],"id":58,"left_children":[1,-1,3,-1,-1],"loss_changes":[4.8644784E-1,0E0,9.971997E-2,0E0,0E0],"parents":[2147483647,0,0,2,2],"right_children":[2,-1,4,-1,-1],"split_conditions":[-1.6E0,-1.3952889E-2,4.4E0,-2.4961594E-10,1.3952889E-2],"split_indices":[1,0,1,0,0],"split_type":[0,0,0,0,0],"sum_hessian":[7.4681373E0,2.7636023E0,4.704535E0,1.9409328E0,2.7636023E0],"tree_param":{"num_deleted":"0","num_feature":"8","num_nodes":"5","size_leaf_vector":"1"}},{"base_weights":[-8.8447925E-9,-2.7395275E-1,1.813445E-1,-5.7532038E-3,-1.7587427E-2,-2.5461536E-10,2.7395272E-1,5.7532038E-3,1.7587423E-2],"categories":[],"categories_nodes":[],"categories_segments":[],"categories_sizes":[],"default_left":[0,0,0,0,0,0,0,0,0],"id":59,"left_children":[1,3,5,-1,-1,-1,7,-1,-1],"loss_changes":[4.678623E-1,5.892068E-3,9.5163986E-2,0E0,0E0,0E0,5.8920383E-3,0E0,0E0],"parents":[2147483647,0,0,1,1,2,2,6,6],"right_children":[2,4,6,-1,-1,-1,8,-1,-1],"split_conditions":[-1.6E0,4E0,4.4E0,-5.7532038E-3,-1.7587427E-2,-2.5461536E-10,9E0,5.7532038E-3,1.7587423E-2],"split_indices":[1,0,1,0,0,0,0,0,0],"split_type":[0,0,0,0,0,0,0,0,0],"sum_hessian":[7.417552E0,2.7510028E0,4.666549E0,1.7190661E0,1.0319368E0,1.9155462E0,2.751003E0,1.7190661E0,1.0319369E0],"tree_param":{"num_deleted":"0","num_feature":"8","num_nodes":"9","size_leaf_vector":"1"}},{"base_weights":[7.148857E-9,-2.7333927E-1,1.8076919E-1,-5.824092E-3,-1.7423904E-2,5.158641E-10,2.7333927E-1,5.824091E-3,1.7423904E-2],"categories":[],"categories_nodes":[],"categories_segments":[],"categories_sizes":[],"default_left":[0,0,0,0,0,0,0,0,0],"id":60,"left_children":[1,3,5,-1,-1,-1,7,-1,-1],"loss_changes":[4.6289062E-1,3.3614337E-3,9.436034E-2,0E0,0E0,0E0,3.361404E-3,0E0,0E0],"parents":[2147483647,0,0,1,1,2,2,6,6],"right_children":[2,4,6,-1,-1,-1,8,-1,-1],"split_conditions":[-1.6E0,4E0,4.4E0,-5.824092E-3,-1.7423904E-2,5.158641E-10,9E0,5.824091E-3,1.7423904E-2],"split_indices":[1,0,1,0,0,0,0,0,0],"split_type":[0,0,0,0,0,0,0,0,0],"sum_hessian":[7.3681097E0,2.7292094E0,4.6389003E0,1.7098988E0,1.0193106E0,1.909691E0,2.7292094E0,1.7098988E0,1.0193106E0],"tree_param":{"num_deleted":"0","num_feature":"8","num_nodes":"9","size_leaf_vector":"1"}},{"base_weights":[-1.4394304E-8,-2.7266628E-1,1.8017098E-1,-5.886016E-3,-1.7265508E-2,-5.225244E-10,2.7266625E-1,5.8860155E-3,1.7265506E-2],"categories":[],"categories_nodes":[],"categories_segments":[],"categories_sizes":[],"default_left":[0,0,0,0,0,0,0,0,0],"id":61,"left_children":[1,3,5,-1,-1,-1,7,-1,-1],"loss_changes":[4.5782417E-1,1.0854006E-3,9.351386E-2,0E0,0E0,0E0,1.0854006E-3,0E0,0E0],"parents":[2147483647,0,0,1,1,2,2,6,6],"right_children":[2,4,6,-1,-1,-1,8,-1,-1],"split_conditions":[-1.6E0,4E0,4.4E0,-5.886016E-3,-1.7265508E-2,-5.225244E-10,9E0,5.8860155E-3,1.7265506E-2],"split_indices":[1,0,1,0,0,0,0,0,0],"split_type":[0,0,0,0,0,0,0,0,0],"sum_hessian":[7.3192816E0,2.7078757E0,4.6114063E0,1.7007558E0,1.0071198E0,1.9035305E0,2.7078757E0,1.7007558E0,1.0071198E0],"tree_param":{"num_deleted":"0","num_feature":"8","num_nodes":"9","size_leaf_vector":"1"}},{"base_weights":[-0E0,-1.3597044E-2,1.7955327E-1,-0E0,1.3597044E-2],"categories":[],"categories_nodes":[],"categories_segments":[],"categories_sizes":[],"default_left":[0,0,0,0,0],"id":62,"left_children":[1,-1,3,-1,-1],"loss_changes":[4.5268548E-1,0E0,9.2631355E-2,0E0,0E0],"parents":[2147483647,0,0,2,2],"right_children":[2,-1,4,-1,-1],"split_conditions":[-1.6E0,-1.3597044E-2,4.4E0,-0E0,1.3597044E-2],"split_indices":[1,0,1,0,0],"split_type":[0,0,0,0,0],"sum_hessian":[7.271046E0,2.6869729E0,4.584073E0,1.8971004E0,2.6869729E0],"tree_param":{"num_deleted":"0","num_feature":"8","num_nodes":"5","size_leaf_vector":"1"}},{"base_weights":[1.7404228E-9,-1.33581925E-2,1.7696443E-1,-2.6959054E-10,1.33581925E-2],"categories":[],"categories_nodes":[],"categories_segments":[],"categories_sizes":[],"default_left":[0,0,0,0,0],"id":63,"left_children":[1,-1,3,-1,-1],"loss_changes":[4.3604064E-1,0E0,8.855684E-2,0E0,0E0],"parents":[2147483647,0,0,2,2],"right_children":[2,-1,4,-1,-1],"split_conditions":[-1.6E0,-1.33581925E-2,4.4E0,-2.6959054E-10,1.33581925E-2],"split_indices":[1,0,1,0,0],"split_type":[0,0,0,0,0],"sum_hessian":[7.2228107E0,2.6748607E0,4.5479503E0,1.8730894E0,2.674861E0],"tree_param":{"num_deleted":"0","num_feature":"8","num_nodes":"5","size_leaf_vector":"1"}},{"base_weights":[1.7315224E-9,-1.744583E-1,1.3127764E-2,-1.3127764E-2,-2.7449928E-10],"categories":[],"categories_nodes":[],"categories_segments":[],"categories_sizes":[],"default_left":[0,0,0,0,0],"id":64,"left_children":[1,3,-1,-1,-1],"loss_changes":[4.2030877E-1,8.472945E-2,0E0,0E0,0E0],"parents":[2147483647,0,0,1,1],"right_children":[2,4,-1,-1,-1],"split_conditions":[4.4E0,-1.6E0,1.3127764E-2,-1.3127764E-2,-2.7449928E-10],"split_indices":[1,1,0,0,0],"split_type":[0,0,0,0,0],"sum_hessian":[7.176056E0,4.5129223E0,2.6631336E0,2.6631336E0,1.8497887E0],"tree_param":{"num_deleted":"0","num_feature":"8","num_nodes":"5","size_leaf_vector":"1"}},{"base_weights":[3.6654042E-9,-1.2905289E-2,1.7203055E-1,-0E0,1.2905289E-2],"categories":[],"categories_nodes":[],"categories_segments":[],"categories_sizes":[],"default_left":[0,0,0,0,0],"id":65,"left_children":[1,-1,3,-1,-1],"loss_changes":[4.0542233E-1,0E0,8.112967E-2,0E0,0E0],"parents":[2147483647,0,0,2,2],"right_children":[2,-1,4,-1,-1],"split_conditions":[-1.6E0,-1.2905289E-2,4.4E0,-0E0,1.2905289E-2],"split_indices":[1,0,1,0,0],"split_type":[0,0,0,0,0],"sum_hessian":[7.130706E0,2.6517732E0,4.4789324E0,1.827159E0,2.6517735E0],"tree_param":{"num_deleted":"0","num_feature":"8","num_nodes":"5","size_leaf_vector":"1"}},{"base_weights":[5.52803E-9,-1.2690333E-2,1.696772E-1,-0E0,1.2690333E-2],"categories":[],"categories_nodes":[],"categories_segments":[],"categories_sizes":[],"default_left":[0,0,0,0,0],"id":66,"left_children":[1,-1,3,-1,-1],"loss_changes":[3.913203E-1,0E0,7.773982E-2,0E0,0E0],"parents":[2147483647,0,0,2,2],"right_children":[2,-1,4,-1,-1],"split_conditions":[-1.6E0,-1.2690333E-2,4.4E0,-0E0,1.2690333E-2],"split_indices":[1,0,1,0,0],"split_type":[0,0,0,0,0],"sum_hessian":[7.0866933E0,2.6407638E0,4.4459295E0,1.8051655E0,2.640764E0],"tree_param":{"num_deleted":"0","num_feature":"8","num_nodes":"5","size_leaf_vector":"1"}},{"base_weights":[-0E0,-1.2482501E-2,1.6739462E-1,1.5200782E-3,1.4153801E-2],"categories":[],"categories_nodes":[],"categories_segments":[],"categories_sizes":[],"default_left":[0,0,0,0,0],"id":67,"left_children":[1,-1,3,-1,-1],"loss_changes":[3.7794748E-1,0E0,7.719052E-2,0E0,0E0],"parents":[2147483647,0,0,2,2],"right_children":[2,-1,4,-1,-1],"split_conditions":[-1.6E0,-1.2482501E-2,8E-1,1.5200782E-3,1.4153801E-2],"split_indices":[1,0,2,0,0],"split_type":[0,0,0,0,0],"sum_hessian":[7.0439534E0,2.630089E0,4.413864E0,2.5989368E0,1.8149276E0],"tree_param":{"num_deleted":"0","num_feature":"8","num_nodes":"5","size_leaf_vector":"1"}},{"base_weights":[4.01508E-9,-1.6641168E-1,1.2400205E-2,-1.7201073E-2,-4.7486663E-2,-3.8245444E-3,-1.4434752E-4],"categories":[],"categories_nodes":[],"categories_segments":[],"categories_sizes":[],"default_left":[0,0,0,0,0,0,0],"id":68,"left_children":[1,3,-1,-1,5,-1,-1],"loss_changes":[3.7153977E-1,9.745911E-2,0E0,0E0,5.4540727E-3,0E0,0E0],"parents":[2147483647,0,0,1,1,4,4],"right_children":[2,4,-1,-1,6,-1,-1],"split_conditions":[4.4E0,-3.6E0,1.2400205E-2,-1.7201073E-2,-1.6E0,-3.8245444E-3,-1.4434752E-4],"split_indices":[1,1,0,0,1,0,0],"split_type":[0,0,0,0,0,0,0],"sum_hessian":[7.0024886E0,4.3874736E0,2.615015E0,1.0005028E0,3.3869708E0,1.6190269E0,1.767944E0],"tree_param":{"num_deleted":"0","num_feature":"8","num_nodes":"7","size_leaf_vector":"1"}},{"base_weights":[6.3478147E-9,-1.2272667E-2,1.6437025E-1,1.4088243E-2,1.2929295E-3],"categories":[],"categories_nodes":[],"categories_segments":[],"categories_sizes":[],"default_left":[0,0,0,0,0],"id":69,"left_children":[1,-1,3,-1,-1],"loss_changes":[3.6146554E-1,0E0,7.9967126E-2,0E0,0E0],"parents":[2147483647,0,0,2,2],"right_children":[2,-1,4,-1,-1],"split_conditions":[-1.6E0,-1.2272667E-2,1.152E3,1.4088243E-2,1.2929295E-3],"split_indices":[1,0,4,0,0],"split_type":[0,0,0,0,0],"sum_hessian":[6.959314E0,2.5933623E0,4.3659515E0,1.8033245E0,2.5626268E0],"tree_param":{"num_deleted":"0","num_feature":"8","num_nodes":"5","size_leaf_vector":"1"}},{"base_weights":[-7.674116E-9,-1.6385546E-1,1.21404575E-2,-1.3839011E-2,-1.4371653E-3],"categories":[],"categories_nodes":[],"categories_segments":[],"categories_sizes":[],"default_left":[0,0,0,0,0],"id":70,"left_children":[1,3,-1,-1,-1],"loss_changes":[3.5483474E-1,7.329236E-2,0E0,0E0,0E0],"parents":[2147483647,0,0,1,1],"right_children":[2,4,-1,-1,-1],"split_conditions":[4.4E0,-8.2E-1,1.21404575E-2,-1.3839011E-2,-1.4371653E-3],"split_indices":[1,2,0,0,0],"split_type":[0,0,0,0,0],"sum_hessian":[6.9186707E0,4.325113E0,2.5935578E0,1.7848442E0,2.5402687E0],"tree_param":{"num_deleted":"0","num_feature":"8","num_nodes":"5","size_leaf_vector":"1"}},{"base_weights":[7.1512987E-9,-1.1997698E-2,1.6127601E-1,1.3777974E-2,1.2540316E-3],"categories":[],"categories_nodes":[],"categories_segments":[],"categories_sizes":[],"default_left":[0,0,0,0,0],"id":71,"left_children":[1,-1,3,-1,-1],"loss_changes":[3.436064E-1,0E0,7.5738996E-2,0E0,0E0],"parents":[2147483647,0,0,2,2],"right_children":[2,-1,4,-1,-1],"split_conditions":[-1.6E0,-1.1997698E-2,1.152E3,1.3777974E-2,1.2540316E-3],"split_indices":[1,0,4,0,0],"split_type":[0,0,0,0,0],"sum_hessian":[6.8789907E0,2.5689464E0,4.3100443E0,1.787153E0,2.5228913E0],"tree_param":{"num_deleted":"0","num_feature":"8","num_nodes":"5","size_leaf_vector":"1"}},{"base_weights":[-2.9698115E-9,-1.6070636E-1,1.18690785E-2,-1.3543299E-2,-1.3833822E-3],"categories":[],"categories_nodes":[],"categories_segments":[],"categories_sizes":[],"default_left":[0,0,0,0,0],"id":72,"left_children":[1,3,-1,-1,-1],"loss_changes":[3.372314E-1,6.975897E-2,0E0,0E0,0E0],"parents":[2147483647,0,0,1,1],"right_children":[2,4,-1,-1,-1],"split_conditions":[4.4E0,-8.2E-1,1.18690785E-2,-1.3543299E-2,-1.3833822E-3],"split_indices":[1,2,0,0,0],"split_type":[0,0,0,0,0],"sum_hessian":[6.839913E0,4.271279E0,2.5686343E0,1.7698236E0,2.5014553E0],"tree_param":{"num_deleted":"0","num_feature":"8","num_nodes":"5","size_leaf_vector":"1"}},{"base_weights":[3.1037164E-9,-1.1735902E-2,1.5831766E-1,1.0568876E-3,1.3686389E-2],"categories":[],"categories_nodes":[],"categories_segments":[],"categories_sizes":[],"default_left":[0,0,0,0,0],"id":73,"left_children":[1,-1,3,-1,-1],"loss_changes":[3.270727E-1,0E0,7.743204E-2,0E0,0E0],"parents":[2147483647,0,0,2,2],"right_children":[2,-1,4,-1,-1],"split_conditions":[-1.6E0,-1.1735902E-2,8E-1,1.0568876E-3,1.3686389E-2],"split_indices":[1,0,2,0,0],"split_type":[0,0,0,0,0],"sum_hessian":[6.801739E0,2.545405E0,4.2563343E0,2.4853394E0,1.770995E0],"tree_param":{"num_deleted":"0","num_feature":"8","num_nodes":"5","size_leaf_vector":"1"}},{"base_weights":[1.0346492E-8,-1.5762942E-1,1.1609475E-2,-1.3248018E-2,-1.3413047E-3],"categories":[],"categories_nodes":[],"categories_segments":[],"categories_sizes":[],"default_left":[0,0,0,0,0],"id":74,"left_children":[1,3,-1,-1,-1],"loss_changes":[3.207488E-1,6.617604E-2,0E0,0E0,0E0],"parents":[2147483647,0,0,1,1],"right_children":[2,4,-1,-1,-1],"split_conditions":[4.4E0,-8.2E-1,1.1609475E-2,-1.3248018E-2,-1.3413047E-3],"split_indices":[1,2,0,0,0],"split_type":[0,0,0,0,0],"sum_hessian":[6.7636533E0,4.219932E0,2.5437212E0,1.7545736E0,2.4653583E0],"tree_param":{"num_deleted":"0","num_feature":"8","num_nodes":"5","size_leaf_vector":"1"}},{"base_weights":[2.4708529E-9,-1.1488534E-2,1.555723E-1,1.3422245E-2,1.0039969E-3],"categories":[],"categories_nodes":[],"categories_segments":[],"categories_sizes":[],"default_left":[0,0,0,0,0],"id":75,"left_children":[1,-1,3,-1,-1],"loss_changes":[3.119525E-1,0E0,7.419114E-2,0E0,0E0],"parents":[2147483647,0,0,2,2],"right_children":[2,-1,4,-1,-1],"split_conditions":[-1.6E0,-1.1488534E-2,1.152E3,1.3422245E-2,1.0039969E-3],"split_indices":[1,0,4,0,0],"split_type":[0,0,0,0,0],"sum_hessian":[6.726932E0,2.523274E0,4.203658E0,1.7579412E0,2.4457169E0],"tree_param":{"num_deleted":"0","num_feature":"8","num_nodes":"5","size_leaf_vector":"1"}},{"base_weights":[8.235181E-9,-1.5468433E-1,1.13617405E-2,-1.2979987E-2,-1.2855185E-3],"categories":[],"categories_nodes":[],"categories_segments":[],"categories_sizes":[],"default_left":[0,0,0,0,0],"id":76,"left_children":[1,3,-1,-1,-1],"loss_changes":[3.0545658E-1,6.328933E-2,0E0,0E0,0E0],"parents":[2147483647,0,0,1,1],"right_children":[2,4,-1,-1,-1],"split_conditions":[4.4E0,-8.2E-1,1.13617405E-2,-1.2979987E-2,-1.2855185E-3],"split_indices":[1,2,0,0,0],"split_type":[0,0,0,0,0],"sum_hessian":[6.6901693E0,4.1704893E0,2.5196798E0,1.7412455E0,2.4292438E0],"tree_param":{"num_deleted":"0","num_feature":"8","num_nodes":"5","size_leaf_vector":"1"}},{"base_weights":[-8.394924E-9,-1.1252126E-2,1.5293713E-1,8.572379E-4,1.3315906E-2],"categories":[],"categories_nodes":[],"categories_segments":[],"categories_sizes":[],"default_left":[0,0,0,0,0],"id":77,"left_children":[1,-1,3,-1,-1],"loss_changes":[2.9787454E-1,0E0,7.476952E-2,0E0,0E0],"parents":[2147483647,0,0,2,2],"right_children":[2,-1,4,-1,-1],"split_conditions":[-1.6E0,-1.1252126E-2,8E-1,8.572379E-4,1.3315906E-2],"split_indices":[1,0,2,0,0],"split_type":[0,0,0,0,0],"sum_hessian":[6.6547756E0,2.5018728E0,4.1529026E0,2.4135242E0,1.7393788E0],"tree_param":{"num_deleted":"0","num_feature":"8","num_nodes":"5","size_leaf_vector":"1"}},{"base_weights":[3.6671305E-10,-1.5182026E-1,1.1124735E-2,-1.2711467E-2,-1.2426724E-3],"categories":[],"categories_nodes":[],"categories_segments":[],"categories_sizes":[],"default_left":[0,0,0,0,0],"id":78,"left_children":[1,3,-1,-1,-1],"loss_changes":[2.9114118E-1,6.0295515E-2,0E0,0E0,0E0],"parents":[2147483647,0,0,1,1],"right_children":[2,4,-1,-1,-1],"split_conditions":[4.4E0,-8.2E-1,1.1124735E-2,-1.2711467E-2,-1.2426724E-3],"split_indices":[1,2,0,0,0],"split_type":[0,0,0,0,0],"sum_hessian":[6.618948E0,4.123146E0,2.495802E0,1.727471E0,2.3956752E0],"tree_param":{"num_deleted":"0","num_feature":"8","num_nodes":"5","size_leaf_vector":"1"}},{"base_weights":[-1.1050864E-9,-1.1028028E-2,1.5047866E-1,1.3091079E-2,7.8942283E-4],"categories":[],"categories_nodes":[],"categories_segments":[],"categories_sizes":[],"default_left":[0,0,0,0,0],"id":79,"left_children":[1,-1,3,-1,-1],"loss_changes":[2.849279E-1,0E0,7.2397485E-2,0E0,0E0],"parents":[2147483647,0,0,2,2],"right_children":[2,-1,4,-1,-1],"split_conditions":[-1.6E0,-1.1028028E-2,1.152E3,1.3091079E-2,7.8942283E-4],"split_indices":[1,0,4,0,0],"split_type":[0,0,0,0,0],"sum_hessian":[6.58484E0,2.4816675E0,4.1031723E0,1.7295468E0,2.3736258E0],"tree_param":{"num_deleted":"0","num_feature":"8","num_nodes":"5","size_leaf_vector":"1"}},{"base_weights":[3.7005554E-9,-1.8069378E-1,1.7986539E-1,-1.350446E-2,-7.1218127E-4,1.193365E-3,1.307258E-2],"categories":[],"categories_nodes":[],"categories_segments":[],"categories_sizes":[],"default_left":[0,0,0,0,0,0,0],"id":80,"left_children":[1,3,5,-1,-1,-1,-1],"loss_changes":[2.7788398E-1,5.9619278E-2,4.8294887E-2,0E0,0E0,0E0,0E0],"parents":[2147483647,0,0,1,1,2,2],"right_children":[2,4,6,-1,-1,-1,-1],"split_conditions":[6E0,0E0,8E-1,-1.350446E-2,-7.1218127E-4,1.193365E-3,1.307258E-2],"split_indices":[0,3,2,0,0,0,0],"split_type":[0,0,0,0,0,0,0],"sum_hessian":[6.550131E0,3.2652433E0,3.2848873E0,1.7192447E0,1.5459986E0,1.5718844E0,1.7130029E0],"tree_param":{"num_deleted":"0","num_feature":"8","num_nodes":"7","size_leaf_vector":"1"}},{"base_weights":[-6.8178335E-10,-1.483584E-1,1.0833065E-2,-1.2508133E-2,-1.0899681E-3],"categories":[],"categories_nodes":[],"categories_segments":[],"categories_sizes":[],"default_left":[0,0,0,0,0],"id":81,"left_children":[1,3,-1,-1,-1],"loss_changes":[2.736395E-1,5.9650898E-2,0E0,0E0,0E0],"parents":[2147483647,0,0,1,1],"right_children":[2,4,-1,-1,-1],"split_conditions":[4.4E0,-8.2E-1,1.0833065E-2,-1.2508133E-2,-1.0899681E-3],"split_indices":[1,2,0,0,0],"split_type":[0,0,0,0,0],"sum_hessian":[6.5130525E0,4.0530124E0,2.4600403E0,1.7049224E0,2.3480897E0],"tree_param":{"num_deleted":"0","num_feature":"8","num_nodes":"5","size_leaf_vector":"1"}},{"base_weights":[-8.466309E-9,-1.0744984E-2,1.471269E-1,1.2865198E-2,6.641065E-4],"categories":[],"categories_nodes":[],"categories_segments":[],"categories_sizes":[],"default_left":[0,0,0,0,0],"id":82,"left_children":[1,-1,3,-1,-1],"loss_changes":[2.681238E-1,0E0,7.0815176E-2,0E0,0E0],"parents":[2147483647,0,0,2,2],"right_children":[2,-1,4,-1,-1],"split_conditions":[-1.6E0,-1.0744984E-2,1.152E3,1.2865198E-2,6.641065E-4],"split_indices":[1,0,4,0,0],"split_type":[0,0,0,0,0],"sum_hessian":[6.480229E0,2.4463487E0,4.03388E0,1.7066282E0,2.327252E0],"tree_param":{"num_deleted":"0","num_feature":"8","num_nodes":"5","size_leaf_vector":"1"}},{"base_weights":[-3.75189E-10,-1.4575893E-1,1.06190285E-2,-1.2272566E-2,-1.0409429E-3],"categories":[],"categories_nodes":[],"categories_segments":[],"categories_sizes":[],"default_left":[0,0,0,0,0],"id":83,"left_children":[1,3,-1,-1,-1],"loss_changes":[2.6148304E-1,5.7280682E-2,0E0,0E0,0E0],"parents":[2147483647,0,0,1,1],"right_children":[2,4,-1,-1,-1],"split_conditions":[4.4E0,-8.2E-1,1.06190285E-2,-1.2272566E-2,-1.0409429E-3],"split_indices":[1,2,0,0,0],"split_type":[0,0,0,0,0],"sum_hessian":[6.4468274E0,4.0090594E0,2.4377682E0,1.693348E0,2.3157115E0],"tree_param":{"num_deleted":"0","num_feature":"8","num_nodes":"5","size_leaf_vector":"1"}},{"base_weights":[2.637557E-9,-1.7537622E-1,1.7419484E-1,-1.3294451E-2,-4.20356E-4,9.894463E-4,1.2758205E-2],"categories":[],"categories_nodes":[],"categories_segments":[],"categories_sizes":[],"default_left":[0,0,0,0,0,0,0],"id":84,"left_children":[1,3,5,-1,-1,-1,-1],"loss_changes":[2.5707853E-1,6.1137855E-2,4.7731742E-2,0E0,0E0,0E0,0E0],"parents":[2147483647,0,0,1,1,2,2],"right_children":[2,4,6,-1,-1,-1,-1],"split_conditions":[6E0,0E0,8E-1,-1.3294451E-2,-4.20356E-4,9.894463E-4,1.2758205E-2],"split_indices":[0,3,2,0,0,0,0],"split_type":[0,0,0,0,0,0,0],"sum_hessian":[6.415109E0,3.1933353E0,3.221774E0,1.6865976E0,1.5067377E0,1.5363675E0,1.6854066E0],"tree_param":{"num_deleted":"0","num_feature":"8","num_nodes":"7","size_leaf_vector":"1"}},{"base_weights":[2.5241327E-9,-1.047972E-2,1.439768E-1,1.2649077E-2,5.499885E-4],"categories":[],"categories_nodes":[],"categories_segments":[],"categories_sizes":[],"default_left":[0,0,0,0,0],"id":85,"left_children":[1,-1,3,-1,-1],"loss_changes":[2.528613E-1,0E0,6.92177E-2,0E0,0E0],"parents":[2147483647,0,0,2,2],"right_children":[2,-1,4,-1,-1],"split_conditions":[-1.6E0,-1.047972E-2,1.152E3,1.2649077E-2,5.499885E-4],"split_indices":[1,0,4,0,0],"split_type":[0,0,0,0,0],"sum_hessian":[6.3793473E0,2.4121318E0,3.9672155E0,1.6841927E0,2.2830229E0],"tree_param":{"num_deleted":"0","num_feature":"8","num_nodes":"5","size_leaf_vector":"1"}},{"base_weights":[1.0140758E-9,-1.1865225E-1,1.2637565E-2,-1.2089431E-2,-6.998482E-3,-1.4091319E-3,8.392022E-4],"categories":[],"categories_nodes":[],"categories_segments":[],"categories_sizes":[],"default_left":[0,0,0,0,0,0,0],"id":86,"left_children":[1,3,-1,-1,5,-1,-1],"loss_changes":[2.5032732E-1,7.640695E-2,0E0,0E0,2.4927838E-3,0E0,0E0],"parents":[2147483647,0,0,1,1,4,4],"right_children":[2,4,-1,-1,6,-1,-1],"split_conditions":[8E-1,-8.2E-1,1.2637565E-2,-1.2089431E-2,3E0,-1.4091319E-3,8.392022E-4],"split_indices":[2,2,0,0,0,0,0],"split_type":[0,0,0,0,0,0,0],"sum_hessian":[6.347163E0,4.680496E0,1.6666675E0,1.6715357E0,3.0089602E0,1.4935627E0,1.5153975E0],"tree_param":{"num_deleted":"0","num_feature":"8","num_nodes":"7","size_leaf_vector":"1"}},{"base_weights":[4.0107846E-9,-1.02843745E-2,1.4198172E-1,1.25259925E-2,4.726518E-4],"categories":[],"categories_nodes":[],"categories_segments":[],"categories_sizes":[],"default_left":[0,0,0,0,0],"id":87,"left_children":[1,-1,3,-1,-1],"loss_changes":[2.4281389E-1,0E0,6.838844E-2,0E0,0E0],"parents":[2147483647,0,0,2,2],"right_children":[2,-1,4,-1,-1],"split_conditions":[-1.6E0,-1.02843745E-2,1.152E3,1.25259925E-2,4.726518E-4],"split_indices":[1,0,4,0,0],"split_type":[0,0,0,0,0],"sum_hessian":[6.314444E0,2.3954663E0,3.9189777E0,1.6650398E0,2.253938E0],"tree_param":{"num_deleted":"0","num_feature":"8","num_nodes":"5","size_leaf_vector":"1"}},{"base_weights":[8.311882E-10,-1.1732333E-1,1.2501336E-2,-1.1876684E-2,-7.3230374E-3,-1.4052854E-3,8.0858305E-4],"categories":[],"categories_nodes":[],"categories_segments":[],"categories_sizes":[],"default_left":[0,0,0,0,0,0,0],"id":88,"left_children":[1,3,-1,-1,5,-1,-1],"loss_changes":[2.4297512E-1,7.280802E-2,0E0,0E0,2.3957551E-3,0E0,0E0],"parents":[2147483647,0,0,1,1,4,4],"right_children":[2,4,-1,-1,6,-1,-1],"split_conditions":[8E-1,-8.2E-1,1.2501336E-2,-1.1876684E-2,3E0,-1.4052854E-3,8.0858305E-4],"split_indices":[2,2,0,0,0,0,0],"split_type":[0,0,0,0,0,0,0],"sum_hessian":[6.2830644E0,4.63764E0,1.6454242E0,1.6619925E0,2.9756474E0,1.4748151E0,1.5008323E0],"tree_param":{"num_deleted":"0","num_feature":"8","num_nodes":"7","size_leaf_vector":"1"}},{"base_weights":[-1.926567E-9,-1.1566571E-1,1.2330386E-2,-1.1737851E-2,-6.70102E-3,-1.4441347E-3,8.923539E-4],"categories":[],"categories_nodes":[],"categories_segments":[],"categories_sizes":[],"default_left":[0,0,0,0,0,0,0],"id":89,"left_children":[1,3,-1,-1,5,-1,-1],"loss_changes":[2.3535648E-1,7.131403E-2,0E0,0E0,2.6731028E-3,0E0,0E0],"parents":[2147483647,0,0,1,1,4,4],"right_children":[2,4,-1,-1,6,-1,-1],"split_conditions":[8E-1,-8.2E-1,1.2330386E-2,-1.1737851E-2,3E0,-1.4441347E-3,8.923539E-4],"split_indices":[2,2,0,0,0,0,0],"split_type":[0,0,0,0,0,0,0],"sum_hessian":[6.251157E0,4.6167493E0,1.6344078E0,1.654288E0,2.962461E0,1.4634821E0,1.4989789E0],"tree_param":{"num_deleted":"0","num_feature":"8","num_nodes":"7","size_leaf_vector":"1"}},{"base_weights":[2.4508642E-9,-1.3920127E-1,1.0121366E-2,-1.1602647E-2,-9.895676E-4],"categories":[],"categories_nodes":[],"categories_segments":[],"categories_sizes":[],"default_left":[0,0,0,0,0],"id":90,"left_children":[1,3,-1,-1,-1],"loss_changes":[2.3162305E-1,4.9409933E-2,0E0,0E0,0E0],"parents":[2147483647,0,0,1,1],"right_children":[2,4,-1,-1,-1],"split_conditions":[4.4E0,-8.2E-1,1.0121366E-2,-1.1602647E-2,-9.895676E-4],"split_indices":[1,2,0,0,0],"split_type":[0,0,0,0,0],"sum_hessian":[6.219955E0,3.870621E0,2.349334E0,1.6467772E0,2.2238438E0],"tree_param":{"num_deleted":"0","num_feature":"8","num_nodes":"5","size_leaf_vector":"1"}},{"base_weights":[-1.5541346E-9,-9.991697E-3,1.3886245E-1,1.2372319E-2,2.9688084E-4],"categories":[],"categories_nodes":[],"categories_segments":[],"categories_sizes":[],"default_left":[0,0,0,0,0],"id":91,"left_children":[1,-1,3,-1,-1],"loss_changes":[2.2729717E-1,0E0,6.828496E-2,0E0,0E0],"parents":[2147483647,0,0,2,2],"right_children":[2,-1,4,-1,-1],"split_conditions":[-1.6E0,-9.991697E-3,1.152E3,1.2372319E-2,2.9688084E-4],"split_indices":[1,0,4,0,0],"split_type":[0,0,0,0,0],"sum_hessian":[6.191057E0,2.3582592E0,3.8327978E0,1.6353548E0,2.197443E0],"tree_param":{"num_deleted":"0","num_feature":"8","num_nodes":"5","size_leaf_vector":"1"}},{"base_weights":[-7.8035284E-10,-1.1401065E-1,1.21233985E-2,-1.1403671E-2,-8.002325E-3,-1.5028663E-3,8.448657E-4],"categories":[],"categories_nodes":[],"categories_segments":[],"categories_sizes":[],"default_left":[0,0,0,0,0,0,0],"id":92,"left_children":[1,3,-1,-1,5,-1,-1],"loss_changes":[2.2559607E-1,6.529248E-2,0E0,0E0,2.6569327E-3,0E0,0E0],"parents":[2147483647,0,0,1,1,4,4],"right_children":[2,4,-1,-1,6,-1,-1],"split_conditions":[8E-1,-8.2E-1,1.21233985E-2,-1.1403671E-2,3E0,-1.5028663E-3,8.448657E-4],"split_indices":[2,2,0,0,0,0,0],"split_type":[0,0,0,0,0,0,0],"sum_hessian":[6.1607804E0,4.5507617E0,1.6100187E0,1.6374416E0,2.91332E0,1.4350644E0,1.4782557E0],"tree_param":{"num_deleted":"0","num_feature":"8","num_nodes":"7","size_leaf_vector":"1"}},{"base_weights":[4.17939E-9,-1.6464351E-1,1.6379674E-1,-1.3013425E-2,3.4871246E-4,1.2249935E-2,5.3863256E-4],"categories":[],"categories_nodes":[],"categories_segments":[],"categories_sizes":[],"default_left":[0,0,0,0,0,0,0],"id":93,"left_children":[1,3,5,-1,-1,-1,-1],"loss_changes":[2.1927151E-1,6.836008E-2,4.8006907E-2,0E0,0E0,0E0,0E0],"parents":[2147483647,0,0,1,1,2,2],"right_children":[2,4,6,-1,-1,-1,-1],"split_conditions":[6E0,0E0,1.152E3,-1.3013425E-2,3.4871246E-4,1.2249935E-2,5.3863256E-4],"split_indices":[0,3,4,0,0,0,0],"split_type":[0,0,0,0,0,0,0],"sum_hessian":[6.130782E0,3.05491E0,3.0758722E0,1.6300762E0,1.4248338E0,1.6168481E0,1.4590242E0],"tree_param":{"num_deleted":"0","num_feature":"8","num_nodes":"7","size_leaf_vector":"1"}},{"base_weights":[5.2491815E-9,-1.131563E-1,1.2010234E-2,-1.1331446E-2,-7.4757985E-3,-1.3931452E-3,7.7980594E-4],"categories":[],"categories_nodes":[],"categories_segments":[],"categories_sizes":[],"default_left":[0,0,0,0,0,0,0],"id":94,"left_children":[1,3,-1,-1,5,-1,-1],"loss_changes":[2.2007912E-1,6.430935E-2,0E0,0E0,2.26146E-3,0E0,0E0],"parents":[2147483647,0,0,1,1,4,4],"right_children":[2,4,-1,-1,6,-1,-1],"split_conditions":[8E-1,-8.2E-1,1.2010234E-2,-1.1331446E-2,3E0,-1.3931452E-3,7.7980594E-4],"split_indices":[2,2,0,0,0,0,0],"split_type":[0,0,0,0,0,0,0],"sum_hessian":[6.0968976E0,4.5040393E0,1.5928583E0,1.6200577E0,2.8839817E0,1.4208326E0,1.4631488E0],"tree_param":{"num_deleted":"0","num_feature":"8","num_nodes":"7","size_leaf_vector":"1"}},{"base_weights":[2.1084456E-9,-1.1163077E-1,1.1853023E-2,-1.1205881E-2,-6.873654E-3,-1.4272276E-3,8.571089E-4],"categories":[],"categories_nodes":[],"categories_segments":[],"categories_sizes":[],"default_left":[0,0,0,0,0,0,0],"id":95,"left_children":[1,3,-1,-1,5,-1,-1],"loss_changes":[2.1348873E-1,6.308966E-2,0E0,0E0,2.504242E-3,0E0,0E0],"parents":[2147483647,0,0,1,1,4,4],"right_children":[2,4,-1,-1,6,-1,-1],"split_conditions":[8E-1,-8.2E-1,1.1853023E-2,-1.1205881E-2,3E0,-1.4272276E-3,8.571089E-4],"split_indices":[2,2,0,0,0,0,0],"split_type":[0,0,0,0,0,0,0],"sum_hessian":[6.0673685E0,4.4846635E0,1.5827048E0,1.613117E0,2.8715465E0,1.4103408E0,1.4612057E0],"tree_param":{"num_deleted":"0","num_feature":"8","num_nodes":"7","size_leaf_vector":"1"}},{"base_weights":[-1.7201478E-9,-9.663728E-3,1.3526835E-1,1.2176258E-2,1.3209133E-4],"categories":[],"categories_nodes":[],"categories_segments":[],"categories_sizes":[],"default_left":[0,0,0,0,0],"id":96,"left_children":[1,-1,3,-1,-1],"loss_changes":[2.1015696E-1,0E0,6.7252174E-2,0E0,0E0],"parents":[2147483647,0,0,2,2],"right_children":[2,-1,4,-1,-1],"split_conditions":[-1.6E0,-9.663728E-3,1.152E3,1.2176258E-2,1.3209133E-4],"split_indices":[1,0,4,0,0],"split_type":[0,0,0,0,0],"sum_hessian":[6.038461E0,2.3096113E0,3.72885E0,1.592662E0,2.136188E0],"tree_param":{"num_deleted":"0","num_feature":"8","num_nodes":"5","size_leaf_vector":"1"}},{"base_weights":[3.7202488E-9,-1.1046411E-1,1.1737796E-2,-1.1026773E-2,-7.036678E-3,-1.4129018E-3,8.2983373E-4],"categories":[],"categories_nodes":[],"categories_segments":[],"categories_sizes":[],"default_left":[0,0,0,0,0,0,0],"id":97,"left_children":[1,3,-1,-1,5,-1,-1],"loss_changes":[2.0770282E-1,6.0454376E-2,0E0,0E0,2.3953752E-3,0E0,0E0],"parents":[2147483647,0,0,1,1,4,4],"right_children":[2,4,-1,-1,6,-1,-1],"split_conditions":[8E-1,-8.2E-1,1.1737796E-2,-1.1026773E-2,3E0,-1.4129018E-3,8.2983373E-4],"split_indices":[2,2,0,0,0,0,0],"split_type":[0,0,0,0,0,0,0],"sum_hessian":[6.009486E0,4.4465966E0,1.5628896E0,1.6055925E0,2.8410041E0,1.3937838E0,1.4472203E0],"tree_param":{"num_deleted":"0","num_feature":"8","num_nodes":"7","size_leaf_vector":"1"}},{"base_weights":[1.5341427E-9,-1.3243663E-1,9.621245E-3,-4.6730606E-4,-1.1296515E-2],"categories":[],"categories_nodes":[],"categories_segments":[],"categories_sizes":[],"default_left":[0,0,0,0,0],"id":98,"left_children":[1,3,-1,-1,-1],"loss_changes":[2.0339465E-1,5.2293554E-2,0E0,0E0,0E0],"parents":[2147483647,0,0,1,1],"right_children":[2,4,-1,-1,-1],"split_conditions":[4.4E0,4E0,9.621245E-3,-4.6730606E-4,-1.1296515E-2],"split_indices":[1,0,0,0,0],"split_type":[0,0,0,0,0],"sum_hessian":[5.9812346E0,3.7275164E0,2.2537181E0,2.0838962E0,1.6436201E0],"tree_param":{"num_deleted":"0","num_feature":"8","num_nodes":"5","size_leaf_vector":"1"}},{"base_weights":[-2.2764661E-9,-1.1404312E-1,1.1635869E-2,-1.089328E-2,-1.2136481E-2,-1.5365575E-3,5.8380904E-4],"categories":[],"categories_nodes":[],"categories_segments":[],"categories_sizes":[],"default_left":[0,0,0,0,0,0,0],"id":99,"left_children":[1,3,-1,-1,5,-1,-1],"loss_changes":[2.1112028E-1,5.3839833E-2,0E0,0E0,2.0206848E-3,0E0,0E0],"parents":[2147483647,0,0,1,1,4,4],"right_children":[2,4,-1,-1,6,-1,-1],"split_conditions":[9E0,-8.2E-1,1.1635869E-2,-1.089328E-2,3E0,-1.5365575E-3,5.8380904E-4],"split_indices":[0,2,0,0,0,0,0],"split_type":[0,0,0,0,0,0,0],"sum_hessian":[5.9548516E0,4.338648E0,1.6162037E0,1.5854735E0,2.7531743E0,1.3828253E0,1.3703492E0],"tree_param":{"num_deleted":"0","num_feature":"8","num_nodes":"7","size_leaf_vector":"1"}}]},"name":"gbtree"},"learner_model_param":{"base_score":"[-0E0]","boost_from_average":"1","num_class":"0","num_feature":"8","num_target":"1"},"objective":{"lambdarank_param":{"lambdarank_bias_norm":"1","lambdarank_normalization":"1","lambdarank_num_pair_per_sample":"4294967295","lambdarank_pair_method":"topk","lambdarank_score_normalization":"1","lambdarank_unbiased":"0","ndcg_exp_gain":"1"},"name":"rank:pairwise"}},"version":[3,2,0]}