{"learner":{"attributes":{"scikit_learn":"{\"_estimator_type\": \"regressor\"}"},"feature_names":["draw","weight","past_avg_seconds"],"feature_types":["int","int","float"],"gradient_booster":{"model":{"cats":{"enc":[],"feature_segments":[],"sorted_idx":[]},"gbtree_model_param":{"num_parallel_tree":"1","num_trees":"50"},"iteration_indptr":[0,1,2,3,4,5,6,7,8,9,10,11,12,13,14,15,16,17,18,19,20,21,22,23,24,25,26,27,28,29,30,31,32,33,34,35,36,37,38,39,40,41,42,43,44,45,46,47,48,49,50],"tree_info":[0,0,0,0,0,0,0,0,0,0,0,0,0,0,0,0,0,0,0,0,0,0,0,0,0,0,0,0,0,0,0,0,0,0,0,0,0,0,0,0,0,0,0,0,0,0,0,0,0,0],"trees":[{"base_weights":[-0E0,-8.779999E-2,6.271428E-1,1.6125107E-1,9.362488E-2,3.250122E-3,1.9333394E-2],"categories":[],"categories_nodes":[],"categories_segments":[],"categories_sizes":[],"default_left":[0,0,0,0,0,0,0],"id":0,"left_children":[1,-1,3,5,-1,-1,-1],"loss_changes":[6.6075754E0,0E0,8.5709834E-1,1.0239065E-2,0E0,0E0,0E0],"parents":[2147483647,0,0,2,2,3,3],"right_children":[2,-1,4,6,-1,-1,-1],"split_conditions":[1.22E2,-8.779999E-2,1.089E2,2E0,9.362488E-2,3.250122E-3,1.9333394E-2],"split_indices":[1,0,2,0,0,0,0],"split_type":[0,0,0,0,0,0,0],"sum_hessian":[1E1,4E0,6E0,3E0,3E0,1E0,2E0],"tree_param":{"num_deleted":"0","num_feature":"3","num_nodes":"7","size_leaf_vector":"1"}},{"base_weights":[2.5815098E-3,-8.077606E-2,5.810285E-1,1.507721E-1,8.6602785E-2,3.087616E-3,1.8044537E-2],"categories":[],"categories_nodes":[],"categories_segments":[],"categories_sizes":[],"default_left":[0,0,0,0,0,0,0],"id":1,"left_children":[1,-1,3,5,-1,-1,-1],"loss_changes":[5.6254716E0,0E0,7.2778654E-1,8.659355E-3,0E0,0E0,0E0],"parents":[2147483647,0,0,2,2,3,3],"right_children":[2,-1,4,6,-1,-1,-1],"split_conditions":[1.22E2,-8.077606E-2,1.089E2,2E0,8.6602785E-2,3.087616E-3,1.8044537E-2],"split_indices":[1,0,2,0,0,0,0],"split_type":[0,0,0,0,0,0,0],"sum_hessian":[1E1,4E0,6E0,3E0,3E0,1E0,2E0],"tree_param":{"num_deleted":"0","num_feature":"3","num_nodes":"7","size_leaf_vector":"1"}},{"base_weights":[4.7732266E-3,-7.4314274E-2,5.38317E-1,1.4097786E-1,8.010769E-2,2.9331208E-3,1.6841633E-2],"categories":[],"categories_nodes":[],"categories_segments":[],"categories_sizes":[],"default_left":[0,0,0,0,0,0,0],"id":2,"left_children":[1,-1,3,5,-1,-1,-1],"loss_changes":[4.789551E0,0E0,6.178994E-1,7.3137954E-3,0E0,0E0,0E0],"parents":[2147483647,0,0,2,2,3,3],"right_children":[2,-1,4,6,-1,-1,-1],"split_conditions":[1.22E2,-7.4314274E-2,1.089E2,2E0,8.010769E-2,2.9331208E-3,1.6841633E-2],"split_indices":[1,0,2,0,0,0,0],"split_type":[0,0,0,0,0,0,0],"sum_hessian":[1E1,4E0,6E0,3E0,3E0,1E0,2E0],"tree_param":{"num_deleted":"0","num_feature":"3","num_nodes":"7","size_leaf_vector":"1"}},{"base_weights":[6.6223145E-3,-6.836884E-2,4.987553E-1,1.318264E-1,7.409954E-2,2.7866364E-3,1.5719097E-2],"categories":[],"categories_nodes":[],"categories_segments":[],"categories_sizes":[],"default_left":[0,0,0,0,0,0,0],"id":3,"left_children":[1,-1,3,5,-1,-1,-1],"loss_changes":[4.0779643E0,0E0,5.2451146E-1,6.167263E-3,0E0,0E0,0E0],"parents":[2147483647,0,0,2,2,3,3],"right_children":[2,-1,4,6,-1,-1,-1],"split_conditions":[1.22E2,-6.836884E-2,1.089E2,2E0,7.409954E-2,2.7866364E-3,1.5719097E-2],"split_indices":[1,0,2,0,0,0,0],"split_type":[0,0,0,0,0,0,0],"sum_hessian":[1E1,4E0,6E0,3E0,3E0,1E0,2E0],"tree_param":{"num_deleted":"0","num_feature":"3","num_nodes":"7","size_leaf_vector":"1"}},{"base_weights":[8.164146E-3,-6.289948E-2,4.6211132E-1,1.2327194E-1,6.8542294E-2,4.9339295E-3,1.7253494E-2],"categories":[],"categories_nodes":[],"categories_segments":[],"categories_sizes":[],"default_left":[0,0,0,0,0,0,0],"id":4,"left_children":[1,-1,3,5,-1,-1,-1],"loss_changes":[3.472267E0,0E0,4.4517386E-1,6.0558245E-3,0E0,0E0,0E0],"parents":[2147483647,0,0,2,2,3,3],"right_children":[2,-1,4,6,-1,-1,-1],"split_conditions":[1.22E2,-6.289948E-2,1.089E2,1.28E2,6.8542294E-2,4.9339295E-3,1.7253494E-2],"split_indices":[1,0,2,1,0,0,0],"split_type":[0,0,0,0,0,0,0],"sum_hessian":[1E1,4E0,6E0,3E0,3E0,2E0,1E0],"tree_param":{"num_deleted":"0","num_feature":"3","num_nodes":"7","size_leaf_vector":"1"}},{"base_weights":[9.876598E-3,-5.7867736E-2,4.2886135E-1,1.1649132E-1,6.34016E-2,4.604848E-3,1.6390992E-2],"categories":[],"categories_nodes":[],"categories_segments":[],"categories_sizes":[],"default_left":[0,0,0,0,0,0,0],"id":5,"left_children":[1,-1,3,5,-1,-1,-1],"loss_changes":[2.9607186E0,0E0,3.747319E-1,5.8133975E-3,0E0,0E0,0E0],"parents":[2147483647,0,0,2,2,3,3],"right_children":[2,-1,4,6,-1,-1,-1],"split_conditions":[1.22E2,-5.7867736E-2,1.089E2,1.28E2,6.34016E-2,4.604848E-3,1.6390992E-2],"split_indices":[1,0,2,1,0,0,0],"split_type":[0,0,0,0,0,0,0],"sum_hessian":[1E1,4E0,6E0,3E0,3E0,2E0,1E0],"tree_param":{"num_deleted":"0","num_feature":"3","num_nodes":"7","size_leaf_vector":"1"}},{"base_weights":[1.1301214E-2,-5.323822E-2,3.9803204E-1,1.10090256E-1,5.8646586E-2,4.297638E-3,1.5571594E-2],"categories":[],"categories_nodes":[],"categories_segments":[],"categories_sizes":[],"default_left":[0,0,0,0,0,0,0],"id":6,"left_children":[1,-1,3,5,-1,-1,-1],"loss_changes":[2.5247557E0,0E0,3.1524146E-1,5.55636E-3,0E0,0E0,0E0],"parents":[2147483647,0,0,2,2,3,3],"right_children":[2,-1,4,6,-1,-1,-1],"split_conditions":[1.22E2,-5.323822E-2,1.089E2,1.28E2,5.8646586E-2,4.297638E-3,1.5571594E-2],"split_indices":[1,0,2,1,0,0,0],"split_type":[0,0,0,0,0,0,0],"sum_hessian":[1E1,4E0,6E0,3E0,3E0,2E0,1E0],"tree_param":{"num_deleted":"0","num_feature":"3","num_nodes":"7","size_leaf_vector":"1"}},{"base_weights":[1.2469205E-2,-4.897919E-2,3.694458E-1,4.0112813E-3,4.9315643E-1,1.4793015E-2,5.4248046E-2],"categories":[],"categories_nodes":[],"categories_segments":[],"categories_sizes":[],"default_left":[0,0,0,0,0,0,0],"id":7,"left_children":[1,-1,3,-1,5,-1,-1],"loss_changes":[2.1532016E0,0E0,2.6541203E-1,0E0,4.890561E-3,0E0,0E0],"parents":[2147483647,0,0,2,2,4,4],"right_children":[2,-1,4,-1,6,-1,-1],"split_conditions":[1.22E2,-4.897919E-2,1.28E2,4.0112813E-3,8E0,1.4793015E-2,5.4248046E-2],"split_indices":[1,0,1,0,0,0,0],"split_type":[0,0,0,0,0,0,0],"sum_hessian":[1E1,4E0,6E0,2E0,4E0,1E0,3E0],"tree_param":{"num_deleted":"0","num_feature":"3","num_nodes":"7","size_leaf_vector":"1"}},{"base_weights":[1.3411782E-2,-4.506073E-2,3.42938E-1,3.743744E-3,4.5765076E-2],"categories":[],"categories_nodes":[],"categories_segments":[],"categories_sizes":[],"default_left":[0,0,0,0,0],"id":8,"left_children":[1,-1,3,-1,-1],"loss_changes":[1.8365015E0,0E0,2.2818029E-1,0E0,0E0],"parents":[2147483647,0,0,2,2],"right_children":[2,-1,4,-1,-1],"split_conditions":[1.22E2,-4.506073E-2,1.28E2,3.743744E-3,4.5765076E-2],"split_indices":[1,0,1,0,0],"split_type":[0,0,0,0,0],"sum_hessian":[1E1,4E0,6E0,2E0,4E0],"tree_param":{"num_deleted":"0","num_feature":"3","num_nodes":"5","size_leaf_vector":"1"}},{"base_weights":[1.2472673E-2,-4.1455993E-1,3.1571415E-1,-1.871338E-2,-5.0379943E-2,8.50296E-2,4.6747018E-2,1.5674591E-3,1.02923075E-2],"categories":[],"categories_nodes":[],"categories_segments":[],"categories_sizes":[],"default_left":[0,0,0,0,0,0,0,0,0],"id":9,"left_children":[1,3,5,-1,-1,7,-1,-1,-1],"loss_changes":[1.5553164E0,7.199168E-3,2.0530552E-1,0E0,0E0,3.350731E-3,0E0,0E0,0E0],"parents":[2147483647,0,0,1,1,2,2,5,5],"right_children":[2,4,6,-1,-1,8,-1,-1,-1],"split_conditions":[1.22E2,4E0,1.089E2,-1.871338E-2,-5.0379943E-2,2E0,4.6747018E-2,1.5674591E-3,1.02923075E-2],"split_indices":[1,0,2,0,0,0,0,0,0],"split_type":[0,0,0,0,0,0,0,0,0],"sum_hessian":[1E1,4E0,6E0,2E0,2E0,3E0,3E0,1E0,2E0],"tree_param":{"num_deleted":"0","num_feature":"3","num_nodes":"9","size_leaf_vector":"1"}},{"base_weights":[1.0272633E-2,-3.8692322E-1,2.9251644E-1,-1.7465718E-2,-4.7021486E-2,7.949257E-2,4.324112E-2,3.098806E-3,1.1250305E-2],"categories":[],"categories_nodes":[],"categories_segments":[],"categories_sizes":[],"default_left":[0,0,0,0,0,0,0,0,0],"id":10,"left_children":[1,3,5,-1,-1,7,-1,-1,-1],"loss_changes":[1.3463482E0,6.273508E-3,1.7423302E-1,0E0,0E0,2.9183775E-3,0E0,0E0,0E0],"parents":[2147483647,0,0,1,1,2,2,5,5],"right_children":[2,4,6,-1,-1,8,-1,-1,-1],"split_conditions":[1.22E2,4E0,1.089E2,-1.7465718E-2,-4.7021486E-2,1.28E2,4.324112E-2,3.098806E-3,1.1250305E-2],"split_indices":[1,0,2,0,0,1,0,0,0],"split_type":[0,0,0,0,0,0,0,0,0],"sum_hessian":[1E1,4E0,6E0,2E0,2E0,3E0,3E0,2E0,1E0],"tree_param":{"num_deleted":"0","num_feature":"3","num_nodes":"9","size_leaf_vector":"1"}},{"base_weights":[8.617055E-3,-3.6112976E-1,2.714909E-1,-1.6301474E-2,-4.388682E-2,1.10098265E-1,4.499817E-2,2.8923035E-3,1.54574085E-2],"categories":[],"categories_nodes":[],"categories_segments":[],"categories_sizes":[],"default_left":[0,0,0,0,0,0,0,0,0],"id":11,"left_children":[1,3,5,-1,-1,7,-1,-1,-1],"loss_changes":[1.167208E0,5.463779E-3,1.5210748E-1,0E0,0E0,1.3580918E-2,0E0,0E0,0E0],"parents":[2147483647,0,0,1,1,2,2,5,5],"right_children":[2,4,6,-1,-1,8,-1,-1,-1],"split_conditions":[1.22E2,4E0,1.1E1,-1.6301474E-2,-4.388682E-2,1.28E2,4.499817E-2,2.8923035E-3,1.54574085E-2],"split_indices":[1,0,0,0,0,1,0,0,0],"split_type":[0,0,0,0,0,0,0,0,0],"sum_hessian":[1E1,4E0,6E0,2E0,2E0,4E0,2E0,2E0,2E0],"tree_param":{"num_deleted":"0","num_feature":"3","num_nodes":"9","size_leaf_vector":"1"}},{"base_weights":[8.042769E-3,-3.3705443E-1,2.533918E-1,-1.5214539E-2,-4.0961202E-2,1.0275879E-1,4.1998293E-2,2.6995342E-3,1.4426931E-2],"categories":[],"categories_nodes":[],"categories_segments":[],"categories_sizes":[],"default_left":[0,0,0,0,0,0,0,0,0],"id":12,"left_children":[1,3,5,-1,-1,7,-1,-1,-1],"loss_changes":[1.0167688E0,4.7621727E-3,1.325019E-1,0E0,0E0,1.18303E-2,0E0,0E0,0E0],"parents":[2147483647,0,0,1,1,2,2,5,5],"right_children":[2,4,6,-1,-1,8,-1,-1,-1],"split_conditions":[1.22E2,4E0,1.1E1,-1.5214539E-2,-4.0961202E-2,1.28E2,4.1998293E-2,2.6995342E-3,1.4426931E-2],"split_indices":[1,0,0,0,0,1,0,0,0],"split_type":[0,0,0,0,0,0,0,0,0],"sum_hessian":[1E1,4E0,6E0,2E0,2E0,4E0,2E0,2E0,2E0],"tree_param":{"num_deleted":"0","num_feature":"3","num_nodes":"9","size_leaf_vector":"1"}},{"base_weights":[7.505937E-3,-3.1458434E-1,2.3649815E-1,-1.4200337E-2,-3.8230386E-2,9.590759E-2,3.9198305E-2,2.5194804E-3,1.3465119E-2],"categories":[],"categories_nodes":[],"categories_segments":[],"categories_sizes":[],"default_left":[0,0,0,0,0,0,0,0,0],"id":13,"left_children":[1,3,5,-1,-1,7,-1,-1,-1],"loss_changes":[8.857165E-1,4.1470528E-3,1.154238E-1,0E0,0E0,1.0305829E-2,0E0,0E0,0E0],"parents":[2147483647,0,0,1,1,2,2,5,5],"right_children":[2,4,6,-1,-1,8,-1,-1,-1],"split_conditions":[1.22E2,4E0,1.1E1,-1.4200337E-2,-3.8230386E-2,1.28E2,3.9198305E-2,2.5194804E-3,1.3465119E-2],"split_indices":[1,0,0,0,0,1,0,0,0],"split_type":[0,0,0,0,0,0,0,0,0],"sum_hessian":[1E1,4E0,6E0,2E0,2E0,4E0,2E0,2E0,2E0],"tree_param":{"num_deleted":"0","num_feature":"3","num_nodes":"9","size_leaf_vector":"1"}},{"base_weights":[7.0051714E-3,-2.9361266E-1,2.2073147E-1,-1.3253785E-2,-3.568166E-2,8.951416E-2,3.6584985E-2,2.3516337E-3,1.25673935E-2],"categories":[],"categories_nodes":[],"categories_segments":[],"categories_sizes":[],"default_left":[0,0,0,0,0,0,0,0,0],"id":14,"left_children":[1,3,5,-1,-1,7,-1,-1,-1],"loss_changes":[7.715589E-1,3.6111176E-3,1.00545526E-1,0E0,0E0,8.976936E-3,0E0,0E0,0E0],"parents":[2147483647,0,0,1,1,2,2,5,5],"right_children":[2,4,6,-1,-1,8,-1,-1,-1],"split_conditions":[1.22E2,4E0,1.1E1,-1.3253785E-2,-3.568166E-2,1.28E2,3.6584985E-2,2.3516337E-3,1.25673935E-2],"split_indices":[1,0,0,0,0,1,0,0,0],"split_type":[0,0,0,0,0,0,0,0,0],"sum_hessian":[1E1,4E0,6E0,2E0,2E0,4E0,2E0,2E0,2E0],"tree_param":{"num_deleted":"0","num_feature":"3","num_nodes":"9","size_leaf_vector":"1"}},{"base_weights":[6.5390845E-3,-2.740387E-1,2.0601763E-1,-8.0276495E-3,-3.0241013E-2,8.354797E-2,3.414612E-2,2.194977E-3,1.1729686E-2],"categories":[],"categories_nodes":[],"categories_segments":[],"categories_sizes":[],"default_left":[0,0,0,0,0,0,0,0,0],"id":15,"left_children":[1,3,5,-1,-1,7,-1,-1,-1],"loss_changes":[6.721186E-1,3.2101274E-3,8.758569E-2,0E0,0E0,7.819708E-3,0E0,0E0,0E0],"parents":[2147483647,0,0,1,1,2,2,5,5],"right_children":[2,4,6,-1,-1,8,-1,-1,-1],"split_conditions":[1.22E2,3E0,1.1E1,-8.0276495E-3,-3.0241013E-2,1.28E2,3.414612E-2,2.194977E-3,1.1729686E-2],"split_indices":[1,0,0,0,0,1,0,0,0],"split_type":[0,0,0,0,0,0,0,0,0],"sum_hessian":[1E1,4E0,6E0,1E0,3E0,4E0,2E0,2E0,2E0],"tree_param":{"num_deleted":"0","num_feature":"3","num_nodes":"9","size_leaf_vector":"1"}},{"base_weights":[6.7762895E-3,-2.5428772E-1,1.9228254E-1,-3.5964966E-2,-1.3803482E-2,7.7978514E-2,3.186951E-2,2.0484924E-3,1.0947927E-2],"categories":[],"categories_nodes":[],"categories_segments":[],"categories_sizes":[],"default_left":[0,0,0,0,0,0,0,0,0],"id":16,"left_children":[1,3,5,-1,-1,7,-1,-1,-1],"loss_changes":[5.816142E-1,1.15989745E-2,7.629484E-2,0E0,0E0,6.812781E-3,0E0,0E0,0E0],"parents":[2147483647,0,0,1,1,2,2,5,5],"right_children":[2,4,6,-1,-1,8,-1,-1,-1],"split_conditions":[1.22E2,1.068E2,1.1E1,-3.5964966E-2,-1.3803482E-2,1.28E2,3.186951E-2,2.0484924E-3,1.0947927E-2],"split_indices":[1,2,0,0,0,1,0,0,0],"split_type":[0,0,0,0,0,0,0,0,0],"sum_hessian":[1E1,4E0,6E0,1E0,3E0,4E0,2E0,2E0,2E0],"tree_param":{"num_deleted":"0","num_feature":"3","num_nodes":"9","size_leaf_vector":"1"}},{"base_weights":[5.651994E-3,-2.3881379E-1,1.7946298E-1,-3.416672E-2,-1.27683645E-2,4.8128128E-2,2.6593208E-2,5.9890747E-4,6.017812E-3],"categories":[],"categories_nodes":[],"categories_segments":[],"categories_sizes":[],"default_left":[0,0,0,0,0,0,0,0,0],"id":17,"left_children":[1,3,5,-1,-1,7,-1,-1,-1],"loss_changes":[5.102575E-1,1.3525248E-2,6.669605E-2,0E0,0E0,1.6706903E-3,0E0,0E0,0E0],"parents":[2147483647,0,0,1,1,2,2,5,5],"right_children":[2,4,6,-1,-1,8,-1,-1,-1],"split_conditions":[1.22E2,1.068E2,1.089E2,-3.416672E-2,-1.27683645E-2,2E0,2.6593208E-2,5.9890747E-4,6.017812E-3],"split_indices":[1,2,2,0,0,0,0,0,0],"split_type":[0,0,0,0,0,0,0,0,0],"sum_hessian":[1E1,4E0,6E0,1E0,3E0,3E0,3E0,1E0,2E0],"tree_param":{"num_deleted":"0","num_feature":"3","num_nodes":"9","size_leaf_vector":"1"}},{"base_weights":[3.8389727E-3,-2.2431794E-1,1.6625977E-1,-3.2458495E-2,-1.1810494E-2,6.493225E-2,2.7971903E-2,1.6911825E-3,9.13086E-3],"categories":[],"categories_nodes":[],"categories_segments":[],"categories_sizes":[],"default_left":[0,0,0,0,0,0,0,0,0],"id":18,"left_children":[1,3,5,-1,-1,7,-1,-1,-1],"loss_changes":[4.4492674E-1,1.4913201E-2,6.2313035E-2,0E0,0E0,4.7888216E-3,0E0,0E0,0E0],"parents":[2147483647,0,0,1,1,2,2,5,5],"right_children":[2,4,6,-1,-1,8,-1,-1,-1],"split_conditions":[1.22E2,1.068E2,1.1E1,-3.2458495E-2,-1.1810494E-2,1.28E2,2.7971903E-2,1.6911825E-3,9.13086E-3],"split_indices":[1,2,0,0,0,1,0,0,0],"split_type":[0,0,0,0,0,0,0,0,0],"sum_hessian":[1E1,4E0,6E0,1E0,3E0,4E0,2E0,2E0,2E0],"tree_param":{"num_deleted":"0","num_feature":"3","num_nodes":"9","size_leaf_vector":"1"}},{"base_weights":[2.956737E-3,-2.1074066E-1,1.5517534E-1,-3.0835724E-2,-1.0924721E-2,6.0601808E-2,2.610728E-2,1.5782675E-2,8.522034E-3,4.8446655E-4,1.8829346E-3],"categories":[],"categories_nodes":[],"categories_segments":[],"categories_sizes":[],"default_left":[0,0,0,0,0,0,0,0,0,0,0],"id":19,"left_children":[1,3,5,-1,-1,7,-1,9,-1,-1,-1],"loss_changes":[3.9051768E-1,1.5850052E-2,5.4284185E-2,0E0,0E0,4.1719005E-3,0E0,8.751696E-6,0E0,0E0,0E0],"parents":[2147483647,0,0,1,1,2,2,5,5,7,7],"right_children":[2,4,6,-1,-1,8,-1,10,-1,-1,-1],"split_conditions":[1.22E2,1.068E2,1.1E1,-3.0835724E-2,-1.0924721E-2,1.28E2,2.610728E-2,2E0,8.522034E-3,4.8446655E-4,1.8829346E-3],"split_indices":[1,2,0,0,0,1,0,0,0,0,0],"split_type":[0,0,0,0,0,0,0,0,0,0,0],"sum_hessian":[1E1,4E0,6E0,1E0,3E0,4E0,2E0,2E0,2E0,1E0,1E0],"tree_param":{"num_deleted":"0","num_feature":"3","num_nodes":"11","size_leaf_vector":"1"}},{"base_weights":[2.2277832E-3,-1.9801788E-1,1.4494215E-1,-2.9293824E-2,-1.0105324E-2,5.6718446E-2,2.436676E-2,1.499176E-2,7.953898E-3,4.6005248E-4,1.7887115E-3],"categories":[],"categories_nodes":[],"categories_segments":[],"categories_sizes":[],"default_left":[0,0,0,0,0,0,0,0,0,0,0],"id":20,"left_children":[1,3,5,-1,-1,7,-1,9,-1,-1,-1],"loss_changes":[3.430584E-1,1.6417235E-2,4.7149032E-2,0E0,0E0,3.5686977E-3,0E0,7.968803E-6,0E0,0E0,0E0],"parents":[2147483647,0,0,1,1,2,2,5,5,7,7],"right_children":[2,4,6,-1,-1,8,-1,10,-1,-1,-1],"split_conditions":[1.22E2,1.068E2,1.1E1,-2.9293824E-2,-1.0105324E-2,1.28E2,2.436676E-2,2E0,7.953898E-3,4.6005248E-4,1.7887115E-3],"split_indices":[1,2,0,0,0,1,0,0,0,0,0],"split_type":[0,0,0,0,0,0,0,0,0,0,0],"sum_hessian":[1E1,4E0,6E0,1E0,3E0,4E0,2E0,2E0,2E0,1E0,1E0],"tree_param":{"num_deleted":"0","num_feature":"3","num_nodes":"11","size_leaf_vector":"1"}},{"base_weights":[1.5668002E-3,-1.8609314E-1,1.3538578E-1,-2.782898E-2,-9.347153E-3,5.3086855E-2,2.2742208E-2,1.424408E-2,7.423401E-3,4.371643E-4,1.6994476E-3],"categories":[],"categories_nodes":[],"categories_segments":[],"categories_sizes":[],"default_left":[0,0,0,0,0,0,0,0,0,0,0],"id":21,"left_children":[1,3,5,-1,-1,7,-1,9,-1,-1,-1],"loss_changes":[3.0143148E-1,1.6684845E-2,4.09483E-2,0E0,0E0,3.0496763E-3,0E0,7.1655377E-6,0E0,0E0,0E0],"parents":[2147483647,0,0,1,1,2,2,5,5,7,7],"right_children":[2,4,6,-1,-1,8,-1,10,-1,-1,-1],"split_conditions":[1.22E2,1.068E2,1.1E1,-2.782898E-2,-9.347153E-3,1.28E2,2.2742208E-2,2E0,7.423401E-3,4.371643E-4,1.6994476E-3],"split_indices":[1,2,0,0,0,1,0,0,0,0,0],"split_type":[0,0,0,0,0,0,0,0,0,0,0],"sum_hessian":[1E1,4E0,6E0,1E0,3E0,4E0,2E0,2E0,2E0,1E0,1E0],"tree_param":{"num_deleted":"0","num_feature":"3","num_nodes":"11","size_leaf_vector":"1"}},{"base_weights":[9.6685236E-4,-1.7491913E-1,1.2646158E-1,-2.6437378E-2,-8.646202E-3,4.9690247E-2,2.1225994E-2,1.3532002E-2,6.9285072E-3,4.1542054E-4,1.6143799E-3],"categories":[],"categories_nodes":[],"categories_segments":[],"categories_sizes":[],"default_left":[0,0,0,0,0,0,0,0,0,0,0],"id":22,"left_children":[1,3,5,-1,-1,7,-1,9,-1,-1,-1],"loss_changes":[2.6492095E-1,1.6706198E-2,3.556072E-2,0E0,0E0,2.605007E-3,0E0,6.4140186E-6,0E0,0E0,0E0],"parents":[2147483647,0,0,1,1,2,2,5,5,7,7],"right_children":[2,4,6,-1,-1,8,-1,10,-1,-1,-1],"split_conditions":[1.22E2,1.068E2,1.1E1,-2.6437378E-2,-8.646202E-3,1.28E2,2.1225994E-2,2E0,6.9285072E-3,4.1542054E-4,1.6143799E-3],"split_indices":[1,2,0,0,0,1,0,0,0,0,0],"split_type":[0,0,0,0,0,0,0,0,0,0,0],"sum_hessian":[1E1,4E0,6E0,1E0,3E0,4E0,2E0,2E0,2E0,1E0,1E0],"tree_param":{"num_deleted":"0","num_feature":"3","num_nodes":"11","size_leaf_vector":"1"}},{"base_weights":[4.2447177E-4,-1.6444549E-1,1.181281E-1,-2.5115585E-2,-7.997895E-3,4.6513367E-2,1.9810995E-2,1.285553E-2,6.466675E-3,3.9482117E-4,1.5335083E-3],"categories":[],"categories_nodes":[],"categories_segments":[],"categories_sizes":[],"default_left":[0,0,0,0,0,0,0,0,0,0,0],"id":23,"left_children":[1,3,5,-1,-1,7,-1,9,-1,-1,-1],"loss_changes":[2.3288937E-1,1.6533434E-2,3.0880384E-2,0E0,0E0,2.2236928E-3,0E0,5.712325E-6,0E0,0E0,0E0],"parents":[2147483647,0,0,1,1,2,2,5,5,7,7],"right_children":[2,4,6,-1,-1,8,-1,10,-1,-1,-1],"split_conditions":[1.22E2,1.068E2,1.1E1,-2.5115585E-2,-7.997895E-3,1.28E2,1.9810995E-2,2E0,6.466675E-3,3.9482117E-4,1.5335083E-3],"split_indices":[1,2,0,0,0,1,0,0,0,0,0],"split_type":[0,0,0,0,0,0,0,0,0,0,0],"sum_hessian":[1E1,4E0,6E0,1E0,3E0,4E0,2E0,2E0,2E0,1E0,1E0],"tree_param":{"num_deleted":"0","num_feature":"3","num_nodes":"11","size_leaf_vector":"1"}},{"base_weights":[-6.589023E-5,-1.5462494E-1,1.10342845E-1,-2.3859788E-2,-7.398224E-3,4.3539427E-2,1.8490093E-2,1.2212117E-2,6.0353596E-3,3.7498475E-4,1.4568329E-3],"categories":[],"categories_nodes":[],"categories_segments":[],"categories_sizes":[],"default_left":[0,0,0,0,0,0,0,0,0,0,0],"id":24,"left_children":[1,3,5,-1,-1,7,-1,9,-1,-1,-1],"loss_changes":[2.0477311E-1,1.6207002E-2,2.6814662E-2,0E0,0E0,1.8966673E-3,0E0,5.1876705E-6,0E0,0E0,0E0],"parents":[2147483647,0,0,1,1,2,2,5,5,7,7],"right_children":[2,4,6,-1,-1,8,-1,10,-1,-1,-1],"split_conditions":[1.22E2,1.068E2,1.1E1,-2.3859788E-2,-7.398224E-3,1.28E2,1.8490093E-2,2E0,6.0353596E-3,3.7498475E-4,1.4568329E-3],"split_indices":[1,2,0,0,0,1,0,0,0,0,0],"split_type":[0,0,0,0,0,0,0,0,0,0,0],"sum_hessian":[1E1,4E0,6E0,1E0,3E0,4E0,2E0,2E0,2E0,1E0,1E0],"tree_param":{"num_deleted":"0","num_feature":"3","num_nodes":"11","size_leaf_vector":"1"}},{"base_weights":[-5.049272E-4,-1.454132E-1,1.0307312E-1,-2.2666931E-2,-6.8431855E-3,4.0759277E-2,1.7257182E-2,1.1601766E-2,5.6330366E-3,3.5629273E-4,1.3839722E-3],"categories":[],"categories_nodes":[],"categories_segments":[],"categories_sizes":[],"default_left":[0,0,0,0,0,0,0,0,0,0,0],"id":25,"left_children":[1,3,5,-1,-1,7,-1,9,-1,-1,-1],"loss_changes":[1.8009068E-1,1.5764624E-2,2.3281217E-2,0E0,0E0,1.6165385E-3,0E0,4.6617643E-6,0E0,0E0,0E0],"parents":[2147483647,0,0,1,1,2,2,5,5,7,7],"right_children":[2,4,6,-1,-1,8,-1,10,-1,-1,-1],"split_conditions":[1.22E2,1.068E2,1.1E1,-2.2666931E-2,-6.8431855E-3,1.28E2,1.7257182E-2,2E0,5.6330366E-3,3.5629273E-4,1.3839722E-3],"split_indices":[1,2,0,0,0,1,0,0,0,0,0],"split_type":[0,0,0,0,0,0,0,0,0,0,0],"sum_hessian":[1E1,4E0,6E0,1E0,3E0,4E0,2E0,2E0,2E0,1E0,1E0],"tree_param":{"num_deleted":"0","num_feature":"3","num_nodes":"11","size_leaf_vector":"1"}},{"base_weights":[-8.974942E-4,-1.3677368E-1,9.628514E-2,-2.1533584E-2,-6.329918E-3,3.815918E-2,1.610667E-2,1.1021932E-2,5.2576703E-3,3.3836366E-4,1.3149262E-3],"categories":[],"categories_nodes":[],"categories_segments":[],"categories_sizes":[],"default_left":[0,0,0,0,0,0,0,0,0,0,0],"id":26,"left_children":[1,3,5,-1,-1,7,-1,9,-1,-1,-1],"loss_changes":[1.5842213E-1,1.5230998E-2,2.0212263E-2,0E0,0E0,1.376762E-3,0E0,4.2551837E-6,0E0,0E0,0E0],"parents":[2147483647,0,0,1,1,2,2,5,5,7,7],"right_children":[2,4,6,-1,-1,8,-1,10,-1,-1,-1],"split_conditions":[1.22E2,1.068E2,1.1E1,-2.1533584E-2,-6.329918E-3,1.28E2,1.610667E-2,2E0,5.2576703E-3,3.3836366E-4,1.3149262E-3],"split_indices":[1,2,0,0,0,1,0,0,0,0,0],"split_type":[0,0,0,0,0,0,0,0,0,0,0],"sum_hessian":[1E1,4E0,6E0,1E0,3E0,4E0,2E0,2E0,2E0,1E0,1E0],"tree_param":{"num_deleted":"0","num_feature":"3","num_nodes":"11","size_leaf_vector":"1"}},{"base_weights":[-1.2470592E-3,-1.2866822E-1,8.99462E-2,-2.0457078E-2,-5.854988E-3,3.5726927E-2,1.5032959E-2,1.0472615E-2,4.9072267E-3,3.21579E-4,1.2493134E-3],"categories":[],"categories_nodes":[],"categories_segments":[],"categories_sizes":[],"default_left":[0,0,0,0,0,0,0,0,0,0,0],"id":27,"left_children":[1,3,5,-1,-1,7,-1,9,-1,-1,-1],"loss_changes":[1.3939267E-1,1.46332085E-2,1.7546792E-2,0E0,0E0,1.171221E-3,0E0,3.8123399E-6,0E0,0E0,0E0],"parents":[2147483647,0,0,1,1,2,2,5,5,7,7],"right_children":[2,4,6,-1,-1,8,-1,10,-1,-1,-1],"split_conditions":[1.22E2,1.068E2,1.1E1,-2.0457078E-2,-5.854988E-3,1.28E2,1.5032959E-2,2E0,4.9072267E-3,3.21579E-4,1.2493134E-3],"split_indices":[1,2,0,0,0,1,0,0,0,0,0],"split_type":[0,0,0,0,0,0,0,0,0,0,0],"sum_hessian":[1E1,4E0,6E0,1E0,3E0,4E0,2E0,2E0,2E0,1E0,1E0],"tree_param":{"num_deleted":"0","num_feature":"3","num_nodes":"11","size_leaf_vector":"1"}},{"base_weights":[-1.5591708E-3,-1.2106629E-1,8.402579E-2,-1.9434357E-2,-5.4161074E-3,3.3450317E-2,1.4030965E-2,9.9487305E-3,4.58018E-3,3.0555725E-4,1.1867523E-3],"categories":[],"categories_nodes":[],"categories_segments":[],"categories_sizes":[],"default_left":[0,0,0,0,0,0,0,0,0,0,0],"id":28,"left_children":[1,3,5,-1,-1,7,-1,9,-1,-1,-1],"loss_changes":[1.2268082E-1,1.3987303E-2,1.52326785E-2,0E0,0E0,9.957273E-4,0E0,3.4175464E-6,0E0,0E0,0E0],"parents":[2147483647,0,0,1,1,2,2,5,5,7,7],"right_children":[2,4,6,-1,-1,8,-1,10,-1,-1,-1],"split_conditions":[1.22E2,1.068E2,1.1E1,-1.9434357E-2,-5.4161074E-3,1.28E2,1.4030965E-2,2E0,4.58018E-3,3.0555725E-4,1.1867523E-3],"split_indices":[1,2,0,0,0,1,0,0,0,0,0],"split_type":[0,0,0,0,0,0,0,0,0,0,0],"sum_hessian":[1E1,4E0,6E0,1E0,3E0,4E0,2E0,2E0,2E0,1E0,1E0],"tree_param":{"num_deleted":"0","num_feature":"3","num_nodes":"11","size_leaf_vector":"1"}},{"base_weights":[-1.8345226E-3,-1.1392975E-1,7.849557E-2,-1.8462753E-2,-5.009842E-3,3.1320192E-2,1.3095601E-2,9.450276E-3,4.2750044E-3,2.9029846E-4,1.127243E-3],"categories":[],"categories_nodes":[],"categories_segments":[],"categories_sizes":[],"default_left":[0,0,0,0,0,0,0,0,0,0,0],"id":29,"left_children":[1,3,5,-1,-1,7,-1,9,-1,-1,-1],"loss_changes":[1.079938E-1,1.33141205E-2,1.3222326E-2,0E0,0E0,8.458495E-4,0E0,3.0668161E-6,0E0,0E0,0E0],"parents":[2147483647,0,0,1,1,2,2,5,5,7,7],"right_children":[2,4,6,-1,-1,8,-1,10,-1,-1,-1],"split_conditions":[1.22E2,1.068E2,1.1E1,-1.8462753E-2,-5.009842E-3,1.28E2,1.3095601E-2,2E0,4.2750044E-3,2.9029846E-4,1.127243E-3],"split_indices":[1,2,0,0,0,1,0,0,0,0,0],"split_type":[0,0,0,0,0,0,0,0,0,0,0],"sum_hessian":[1E1,4E0,6E0,1E0,3E0,4E0,2E0,2E0,2E0,1E0,1E0],"tree_param":{"num_deleted":"0","num_feature":"3","num_nodes":"11","size_leaf_vector":"1"}},{"base_weights":[-2.0751953E-3,-1.0722961E-1,7.333156E-2,-1.7539596E-2,-4.6339035E-3,2.9327393E-2,1.22227995E-2,8.977254E-3,3.9901733E-3,2.7580262E-4,1.0707856E-3],"categories":[],"categories_nodes":[],"categories_segments":[],"categories_sizes":[],"default_left":[0,0,0,0,0,0,0,0,0,0,0],"id":30,"left_children":[1,3,5,-1,-1,7,-1,9,-1,-1,-1],"loss_changes":[9.50862E-2,1.2625761E-2,1.1476897E-2,0E0,0E0,7.177382E-4,0E0,2.7564674E-6,0E0,0E0,0E0],"parents":[2147483647,0,0,1,1,2,2,5,5,7,7],"right_children":[2,4,6,-1,-1,8,-1,10,-1,-1,-1],"split_conditions":[1.22E2,1.068E2,1.1E1,-1.7539596E-2,-4.6339035E-3,1.28E2,1.22227995E-2,2E0,3.9901733E-3,2.7580262E-4,1.0707856E-3],"split_indices":[1,2,0,0,0,1,0,0,0,0,0],"split_type":[0,0,0,0,0,0,0,0,0,0,0],"sum_hessian":[1E1,4E0,6E0,1E0,3E0,4E0,2E0,2E0,2E0,1E0,1E0],"tree_param":{"num_deleted":"0","num_feature":"3","num_nodes":"11","size_leaf_vector":"1"}},{"base_weights":[-2.2874312E-3,-1.0094299E-1,6.8507604E-2,-1.6662598E-2,-4.2865753E-2,2.746277E-2,1.140798E-2,-1.2817383E-3,-4.860942E-3,8.529663E-3,3.724162E-3,2.6206972E-4,1.0173798E-3],"categories":[],"categories_nodes":[],"categories_segments":[],"categories_sizes":[],"default_left":[0,0,0,0,0,0,0,0,0,0,0,0,0],"id":31,"left_children":[1,3,5,-1,7,9,-1,-1,-1,11,-1,-1,-1],"loss_changes":[8.3742924E-2,1.1930887E-2,9.960573E-3,0E0,6.7305285E-5,6.0806144E-4,0E0,0E0,0E0,2.4829642E-6,0E0,0E0,0E0],"parents":[2147483647,0,0,1,1,2,2,4,4,5,5,9,9],"right_children":[2,4,6,-1,8,10,-1,-1,-1,12,-1,-1,-1],"split_conditions":[1.22E2,1.068E2,1.1E1,-1.6662598E-2,3E0,1.28E2,1.140798E-2,-1.2817383E-3,-4.860942E-3,2E0,3.724162E-3,2.6206972E-4,1.0173798E-3],"split_indices":[1,2,0,0,0,1,0,0,0,0,0,0,0],"split_type":[0,0,0,0,0,0,0,0,0,0,0,0,0],"sum_hessian":[1E1,4E0,6E0,1E0,3E0,4E0,2E0,1E0,2E0,2E0,2E0,1E0,1E0],"tree_param":{"num_deleted":"0","num_feature":"3","num_nodes":"13","size_leaf_vector":"1"}},{"base_weights":[-2.639077E-3,-9.541015E-2,6.400299E-2,-1.5829468E-2,-4.0115356E-2,2.5718689E-2,1.0647583E-2,-1.2176514E-3,-4.536947E-3,2.4909974E-4,3.0902864E-3],"categories":[],"categories_nodes":[],"categories_segments":[],"categories_sizes":[],"default_left":[0,0,0,0,0,0,0,0,0,0,0],"id":32,"left_children":[1,3,5,-1,7,9,-1,-1,-1,-1,-1],"loss_changes":[7.4113555E-2,1.1035886E-2,8.643886E-3,0E0,3.473321E-5,5.251027E-4,0E0,0E0,0E0,0E0,0E0],"parents":[2147483647,0,0,1,1,2,2,4,4,5,5],"right_children":[2,4,6,-1,8,10,-1,-1,-1,-1,-1],"split_conditions":[1.22E2,1.068E2,1.1E1,-1.5829468E-2,3E0,2E0,1.0647583E-2,-1.2176514E-3,-4.536947E-3,2.4909974E-4,3.0902864E-3],"split_indices":[1,2,0,0,0,0,0,0,0,0,0],"split_type":[0,0,0,0,0,0,0,0,0,0,0],"sum_hessian":[1E1,4E0,6E0,1E0,3E0,4E0,2E0,1E0,2E0,1E0,3E0],"tree_param":{"num_deleted":"0","num_feature":"3","num_nodes":"11","size_leaf_vector":"1"}},{"base_weights":[-3.0656294E-3,-9.018402E-2,5.959974E-2,-1.5037918E-2,-3.7540436E-2,1.5550613E-2,8.874893E-3,-1.1566163E-3,-4.234314E-3,2.3651123E-4,1.915741E-3],"categories":[],"categories_nodes":[],"categories_segments":[],"categories_sizes":[],"default_left":[0,0,0,0,0,0,0,0,0,0,0],"id":33,"left_children":[1,3,5,-1,7,9,-1,-1,-1,-1,-1],"loss_changes":[6.542731E-2,1.0199148E-2,7.6078754E-3,0E0,9.239186E-6,1.449202E-4,0E0,0E0,0E0,0E0,0E0],"parents":[2147483647,0,0,1,1,2,2,4,4,5,5],"right_children":[2,4,6,-1,8,10,-1,-1,-1,-1,-1],"split_conditions":[1.22E2,1.068E2,1.089E2,-1.5037918E-2,3E0,2E0,8.874893E-3,-1.1566163E-3,-4.234314E-3,2.3651123E-4,1.915741E-3],"split_indices":[1,2,2,0,0,0,0,0,0,0,0],"split_type":[0,0,0,0,0,0,0,0,0,0,0],"sum_hessian":[1E1,4E0,6E0,1E0,3E0,3E0,3E0,1E0,2E0,1E0,2E0],"tree_param":{"num_deleted":"0","num_feature":"3","num_nodes":"11","size_leaf_vector":"1"}},{"base_weights":[-3.612865E-3,-8.5250854E-2,5.5216108E-2,-1.4286041E-2,-3.5133362E-3,2.1226501E-2,9.346008E-3,6.273905E-4,2.9103598E-3],"categories":[],"categories_nodes":[],"categories_segments":[],"categories_sizes":[],"default_left":[0,0,0,0,0,0,0,0,0],"id":34,"left_children":[1,3,5,-1,-1,7,-1,-1,-1],"loss_changes":[5.753669E-2,9.417068E-3,7.1154535E-3,0E0,0E0,4.0632184E-4,0E0,0E0,0E0],"parents":[2147483647,0,0,1,1,2,2,5,5],"right_children":[2,4,6,-1,-1,8,-1,-1,-1],"split_conditions":[1.22E2,1.068E2,1.1E1,-1.4286041E-2,-3.5133362E-3,1.28E2,9.346008E-3,6.273905E-4,2.9103598E-3],"split_indices":[1,2,0,0,0,1,0,0,0],"split_type":[0,0,0,0,0,0,0,0,0],"sum_hessian":[1E1,4E0,6E0,1E0,3E0,4E0,2E0,2E0,2E0],"tree_param":{"num_deleted":"0","num_feature":"3","num_nodes":"9","size_leaf_vector":"1"}},{"base_weights":[-3.697482E-3,-8.0285646E-2,5.153656E-2,-1.8244425E-3,-1.1556498E-2,2.5819143E-2,1.0292053E-2,5.856832E-4,3.4336091E-3],"categories":[],"categories_nodes":[],"categories_segments":[],"categories_sizes":[],"default_left":[0,0,0,0,0,0,0,0,0],"id":35,"left_children":[1,3,5,-1,-1,7,-1,-1,-1],"loss_changes":[5.0670657E-2,8.83545E-3,6.592922E-3,0E0,0E0,8.1900693E-4,0E0,0E0,0E0],"parents":[2147483647,0,0,1,1,2,2,5,5],"right_children":[2,4,6,-1,-1,8,-1,-1,-1],"split_conditions":[1.22E2,4E0,1.2E1,-1.8244425E-3,-1.1556498E-2,1.28E2,1.0292053E-2,5.856832E-4,3.4336091E-3],"split_indices":[1,0,0,0,0,1,0,0,0],"split_type":[0,0,0,0,0,0,0,0,0],"sum_hessian":[1E1,4E0,6E0,2E0,2E0,5E0,1E0,2E0,3E0],"tree_param":{"num_deleted":"0","num_feature":"3","num_nodes":"9","size_leaf_vector":"1"}},{"base_weights":[-3.2431863E-3,-7.493286E-2,4.8427038E-2,-1.2993622E-2,-2.8697968E-2,2.3906708E-2,9.777451E-3,-8.31604E-4,-3.271993E-3,5.4651895E-3,3.176117E-3,1.6403198E-4,6.557465E-4],"categories":[],"categories_nodes":[],"categories_segments":[],"categories_sizes":[],"default_left":[0,0,0,0,0,0,0,0,0,0,0,0,0],"id":36,"left_children":[1,3,5,-1,7,9,-1,-1,-1,11,-1,-1,-1],"loss_changes":[4.437522E-2,8.986466E-3,6.1326455E-3,0E0,5.5801123E-5,6.955082E-4,0E0,0E0,0E0,1.7770872E-6,0E0,0E0,0E0],"parents":[2147483647,0,0,1,1,2,2,4,4,5,5,9,9],"right_children":[2,4,6,-1,8,10,-1,-1,-1,12,-1,-1,-1],"split_conditions":[1.22E2,1.068E2,1.2E1,-1.2993622E-2,3E0,1.28E2,9.777451E-3,-8.31604E-4,-3.271993E-3,2E0,3.176117E-3,1.6403198E-4,6.557465E-4],"split_indices":[1,2,0,0,0,1,0,0,0,0,0,0,0],"split_type":[0,0,0,0,0,0,0,0,0,0,0,0,0],"sum_hessian":[1E1,4E0,6E0,1E0,3E0,5E0,1E0,1E0,2E0,2E0,3E0,1E0,1E0],"tree_param":{"num_deleted":"0","num_feature":"3","num_nodes":"13","size_leaf_vector":"1"}},{"base_weights":[-3.2209917E-3,-1.0243734E-1,3.0209012E-2,-1.2343979E-2,-3.0216218E-3,-2.6830038E-4,6.837273E-2,-1.5660605E-3,1.1343002E-2,2.9240928E-3,9.288407E-3,1.5563965E-4,1.4086406E-3],"categories":[],"categories_nodes":[],"categories_segments":[],"categories_sizes":[],"default_left":[0,0,0,0,0,0,0,0,0,0,0,0,0],"id":37,"left_children":[1,3,5,-1,-1,7,9,-1,11,-1,-1,-1,-1],"loss_changes":[3.9579358E-2,8.2058087E-4,1.0486491E-2,0E0,0E0,1.2499865E-3,1.1206754E-3,0E0,8.547038E-5,0E0,0E0,0E0,0E0],"parents":[2147483647,0,0,1,1,2,2,5,5,6,6,8,8],"right_children":[2,4,6,-1,-1,8,10,-1,12,-1,-1,-1,-1],"split_conditions":[1.2E2,5E0,1.089E2,-1.2343979E-2,-3.0216218E-3,1.22E2,1.2E1,-1.5660605E-3,2E0,2.9240928E-3,9.288407E-3,1.5563965E-4,1.4086406E-3],"split_indices":[1,0,2,0,0,1,0,0,0,0,0,0,0],"split_type":[0,0,0,0,0,0,0,0,0,0,0,0,0],"sum_hessian":[1E1,2E0,8E0,1E0,1E0,5E0,3E0,2E0,3E0,2E0,1E0,1E0,2E0],"tree_param":{"num_deleted":"0","num_feature":"3","num_nodes":"13","size_leaf_vector":"1"}},{"base_weights":[-3.185619E-3,-9.731547E-2,2.8544955E-2,-1.1726761E-2,-2.8705597E-3,4.871913E-3,7.426707E-2,-1.461792E-3,1.55914305E-2,2.3159028E-3,8.8241575E-3,4.6691895E-4,2.1316528E-3],"categories":[],"categories_nodes":[],"categories_segments":[],"categories_sizes":[],"default_left":[0,0,0,0,0,0,0,0,0,0,0,0,0],"id":38,"left_children":[1,3,5,-1,-1,7,9,-1,11,-1,-1,-1,-1],"loss_changes":[3.5632607E-2,7.405039E-4,9.37961E-3,0E0,0E0,1.6903655E-3,9.9038705E-5,0E0,2.1312351E-4,0E0,0E0,0E0,0E0],"parents":[2147483647,0,0,1,1,2,2,5,5,6,6,8,8],"right_children":[2,4,6,-1,-1,8,10,-1,12,-1,-1,-1,-1],"split_conditions":[1.2E2,5E0,1.1E1,-1.1726761E-2,-2.8705597E-3,1.22E2,1.2E1,-1.461792E-3,1.28E2,2.3159028E-3,8.8241575E-3,4.6691895E-4,2.1316528E-3],"split_indices":[1,0,0,0,0,1,0,0,1,0,0,0,0],"split_type":[0,0,0,0,0,0,0,0,0,0,0,0,0],"sum_hessian":[1E1,2E0,8E0,1E0,1E0,6E0,2E0,2E0,4E0,1E0,1E0,2E0,2E0],"tree_param":{"num_deleted":"0","num_feature":"3","num_nodes":"13","size_leaf_vector":"1"}},{"base_weights":[-3.0774204E-3,-9.245046E-2,2.7055528E-2,-1.1140442E-2,-2.7271272E-3,4.549299E-3,7.055155E-2,-1.3641358E-3,1.4553833E-2,2.199936E-3,8.382797E-3,4.3589273E-4,1.9897462E-3],"categories":[],"categories_nodes":[],"categories_segments":[],"categories_sizes":[],"default_left":[0,0,0,0,0,0,0,0,0,0,0,0,0],"id":39,"left_children":[1,3,5,-1,-1,7,9,-1,11,-1,-1,-1,-1],"loss_changes":[3.2125104E-2,6.680712E-4,8.489424E-3,0E0,0E0,1.4724573E-3,8.963607E-5,0E0,1.8565741E-4,0E0,0E0,0E0,0E0],"parents":[2147483647,0,0,1,1,2,2,5,5,6,6,8,8],"right_children":[2,4,6,-1,-1,8,10,-1,12,-1,-1,-1,-1],"split_conditions":[1.2E2,5E0,1.1E1,-1.1140442E-2,-2.7271272E-3,1.22E2,1.2E1,-1.3641358E-3,1.28E2,2.199936E-3,8.382797E-3,4.3589273E-4,1.9897462E-3],"split_indices":[1,0,0,0,0,1,0,0,1,0,0,0,0],"split_type":[0,0,0,0,0,0,0,0,0,0,0,0,0],"sum_hessian":[1E1,2E0,8E0,1E0,1E0,6E0,2E0,2E0,4E0,1E0,1E0,2E0,2E0],"tree_param":{"num_deleted":"0","num_feature":"3","num_nodes":"13","size_leaf_vector":"1"}},{"base_weights":[-2.9719959E-3,-8.782959E-2,2.564409E-2,-1.0583497E-2,-2.5909424E-3,4.246303E-3,6.702423E-2,-9.033203E-3,1.6464233E-2,2.0900727E-3,7.963562E-3,1.02996826E-4,-1.2730916E-3,1.8569947E-3,5.0735474E-4],"categories":[],"categories_nodes":[],"categories_segments":[],"categories_sizes":[],"default_left":[0,0,0,0,0,0,0,0,0,0,0,0,0,0,0],"id":40,"left_children":[1,3,5,-1,-1,7,9,11,13,-1,-1,-1,-1,-1,-1],"loss_changes":[2.8963523E-2,6.025657E-4,7.6843863E-3,0E0,0E0,1.2844614E-3,8.060131E-5,1.6195537E-4,1.7265556E-6,0E0,0E0,0E0,0E0,0E0,0E0],"parents":[2147483647,0,0,1,1,2,2,5,5,6,6,7,7,8,8],"right_children":[2,4,6,-1,-1,8,10,12,14,-1,-1,-1,-1,-1,-1],"split_conditions":[1.2E2,5E0,1.1E1,-1.0583497E-2,-2.5909424E-3,4E0,1.2E1,2E0,9E0,2.0900727E-3,7.963562E-3,1.02996826E-4,-1.2730916E-3,1.8569947E-3,5.0735474E-4],"split_indices":[1,0,0,0,0,0,0,0,0,0,0,0,0,0,0],"split_type":[0,0,0,0,0,0,0,0,0,0,0,0,0,0,0],"sum_hessian":[1E1,2E0,8E0,1E0,1E0,6E0,2E0,3E0,3E0,1E0,1E0,1E0,2E0,2E0,1E0],"tree_param":{"num_deleted":"0","num_feature":"3","num_nodes":"15","size_leaf_vector":"1"}},{"base_weights":[-2.8499255E-3,-8.34376E-2,2.4329292E-2,-1.0054397E-2,-2.4612427E-3,3.992353E-3,6.3672386E-2,-8.422852E-3,1.540947E-3,1.98555E-3,7.565308E-3,9.765625E-5,-1.1881511E-3],"categories":[],"categories_nodes":[],"categories_segments":[],"categories_sizes":[],"default_left":[0,0,0,0,0,0,0,0,0,0,0,0,0],"id":41,"left_children":[1,3,5,-1,-1,7,9,11,-1,-1,-1,-1,-1],"loss_changes":[2.6123386E-2,5.442258E-4,6.9468603E-3,0E0,0E0,1.1220125E-3,7.274002E-5,1.4164051E-4,0E0,0E0,0E0,0E0,0E0],"parents":[2147483647,0,0,1,1,2,2,5,5,6,6,7,7],"right_children":[2,4,6,-1,-1,8,10,12,-1,-1,-1,-1,-1],"split_conditions":[1.2E2,5E0,1.1E1,-1.0054397E-2,-2.4612427E-3,4E0,1.2E1,2E0,1.540947E-3,1.98555E-3,7.565308E-3,9.765625E-5,-1.1881511E-3],"split_indices":[1,0,0,0,0,0,0,0,0,0,0,0,0],"split_type":[0,0,0,0,0,0,0,0,0,0,0,0,0],"sum_hessian":[1E1,2E0,8E0,1E0,1E0,6E0,2E0,3E0,3E0,1E0,1E0,1E0,2E0],"tree_param":{"num_deleted":"0","num_feature":"3","num_nodes":"13","size_leaf_vector":"1"}},{"base_weights":[-2.793052E-3,-7.926432E-2,2.3007711E-2,-9.551621E-3,-2.338028E-3,3.6577496E-3,6.0488384E-2,-1.1088054E-3,1.1773681E-2,1.8863678E-3,7.1868896E-3,3.3162435E-4,1.6306558E-3],"categories":[],"categories_nodes":[],"categories_segments":[],"categories_sizes":[],"default_left":[0,0,0,0,0,0,0,0,0,0,0,0,0],"id":42,"left_children":[1,3,5,-1,-1,7,9,-1,11,-1,-1,-1,-1],"loss_changes":[2.352688E-2,4.9146824E-4,6.3059945E-3,0E0,0E0,9.6827873E-4,6.541982E-5,0E0,1.3760611E-4,0E0,0E0,0E0,0E0],"parents":[2147483647,0,0,1,1,2,2,5,5,6,6,8,8],"right_children":[2,4,6,-1,-1,8,10,-1,12,-1,-1,-1,-1],"split_conditions":[1.2E2,5E0,1.1E1,-9.551621E-3,-2.338028E-3,1.22E2,1.2E1,-1.1088054E-3,1.28E2,1.8863678E-3,7.1868896E-3,3.3162435E-4,1.6306558E-3],"split_indices":[1,0,0,0,0,1,0,0,1,0,0,0,0],"split_type":[0,0,0,0,0,0,0,0,0,0,0,0,0],"sum_hessian":[1E1,2E0,8E0,1E0,1E0,6E0,2E0,2E0,4E0,1E0,1E0,2E0,2E0],"tree_param":{"num_deleted":"0","num_feature":"3","num_nodes":"13","size_leaf_vector":"1"}},{"base_weights":[-2.6924827E-3,-7.5302124E-2,2.1809896E-2,-9.07402E-3,-2.2212982E-3,3.413609E-3,5.74646E-2,-7.381439E-3,1.3355255E-2,1.7921448E-3,6.8275454E-3,7.6293945E-5,-1.0350546E-3,1.5218098E-3,3.883362E-4],"categories":[],"categories_nodes":[],"categories_segments":[],"categories_sizes":[],"default_left":[0,0,0,0,0,0,0,0,0,0,0,0,0,0,0],"id":43,"left_children":[1,3,5,-1,-1,7,9,11,13,-1,-1,-1,-1,-1,-1],"loss_changes":[2.1212531E-2,4.431717E-4,5.7070656E-3,0E0,0E0,8.4982486E-4,5.889032E-5,1.04622944E-4,1.1481228E-5,0E0,0E0,0E0,0E0,0E0,0E0],"parents":[2147483647,0,0,1,1,2,2,5,5,6,6,7,7,8,8],"right_children":[2,4,6,-1,-1,8,10,12,14,-1,-1,-1,-1,-1,-1],"split_conditions":[1.2E2,5E0,1.1E1,-9.07402E-3,-2.2212982E-3,4E0,1.2E1,2E0,9E0,1.7921448E-3,6.8275454E-3,7.6293945E-5,-1.0350546E-3,1.5218098E-3,3.883362E-4],"split_indices":[1,0,0,0,0,0,0,0,0,0,0,0,0,0,0],"split_type":[0,0,0,0,0,0,0,0,0,0,0,0,0,0,0],"sum_hessian":[1E1,2E0,8E0,1E0,1E0,6E0,2E0,3E0,3E0,1E0,1E0,1E0,2E0,2E0,1E0],"tree_param":{"num_deleted":"0","num_feature":"3","num_nodes":"15","size_leaf_vector":"1"}},{"base_weights":[-2.579429E-3,-7.153829E-2,2.069346E-2,-8.620453E-3,-2.1102906E-3,3.2097953E-3,5.4590862E-2,-6.881714E-3,1.2498856E-2,1.7024995E-3,6.48613E-3,7.247925E-5,-9.6588134E-4,1.4205932E-3,3.6888124E-4],"categories":[],"categories_nodes":[],"categories_segments":[],"categories_sizes":[],"default_left":[0,0,0,0,0,0,0,0,0,0,0,0,0,0,0],"id":44,"left_children":[1,3,5,-1,-1,7,9,11,13,-1,-1,-1,-1,-1,-1],"loss_changes":[1.9133965E-2,3.9992668E-4,5.158632E-3,0E0,0E0,7.4219797E-4,5.3190626E-5,9.149674E-5,7.754657E-6,0E0,0E0,0E0,0E0,0E0,0E0],"parents":[2147483647,0,0,1,1,2,2,5,5,6,6,7,7,8,8],"right_children":[2,4,6,-1,-1,8,10,12,14,-1,-1,-1,-1,-1,-1],"split_conditions":[1.2E2,5E0,1.1E1,-8.620453E-3,-2.1102906E-3,4E0,1.2E1,2E0,9E0,1.7024995E-3,6.48613E-3,7.247925E-5,-9.6588134E-4,1.4205932E-3,3.6888124E-4],"split_indices":[1,0,0,0,0,0,0,0,0,0,0,0,0,0,0],"split_type":[0,0,0,0,0,0,0,0,0,0,0,0,0,0,0],"sum_hessian":[1E1,2E0,8E0,1E0,1E0,6E0,2E0,3E0,3E0,1E0,1E0,1E0,2E0,2E0,1E0],"tree_param":{"num_deleted":"0","num_feature":"3","num_nodes":"15","size_leaf_vector":"1"}},{"base_weights":[-2.469843E-3,-6.7960106E-2,1.9634672E-2,-8.189392E-3,-2.0046234E-3,3.0179706E-3,5.186208E-2,-6.416321E-3,1.1697769E-2,1.6174316E-3,6.1618807E-3,6.866455E-5,-9.0128585E-4,1.3259888E-3,3.5057068E-4],"categories":[],"categories_nodes":[],"categories_segments":[],"categories_sizes":[],"default_left":[0,0,0,0,0,0,0,0,0,0,0,0,0,0,0],"id":45,"left_children":[1,3,5,-1,-1,7,9,11,13,-1,-1,-1,-1,-1,-1],"loss_changes":[1.7258307E-2,3.6120508E-4,4.6631014E-3,0E0,0E0,6.482709E-4,4.7945417E-5,7.9961086E-5,4.702597E-6,0E0,0E0,0E0,0E0,0E0,0E0],"parents":[2147483647,0,0,1,1,2,2,5,5,6,6,7,7,8,8],"right_children":[2,4,6,-1,-1,8,10,12,14,-1,-1,-1,-1,-1,-1],"split_conditions":[1.2E2,5E0,1.1E1,-8.189392E-3,-2.0046234E-3,4E0,1.2E1,2E0,9E0,1.6174316E-3,6.1618807E-3,6.866455E-5,-9.0128585E-4,1.3259888E-3,3.5057068E-4],"split_indices":[1,0,0,0,0,0,0,0,0,0,0,0,0,0,0],"split_type":[0,0,0,0,0,0,0,0,0,0,0,0,0,0,0],"sum_hessian":[1E1,2E0,8E0,1E0,1E0,6E0,2E0,3E0,3E0,1E0,1E0,1E0,2E0,2E0,1E0],"tree_param":{"num_deleted":"0","num_feature":"3","num_nodes":"15","size_leaf_vector":"1"}},{"base_weights":[-2.3664995E-3,-6.456248E-2,1.8628439E-2,-7.780075E-3,-1.9042969E-3,2.835955E-3,4.9268086E-2,-5.9833527E-3,1.0946274E-2,1.5365601E-3,5.853653E-3,6.5231325E-5,-8.412679E-4,1.2374878E-3,3.3302308E-4],"categories":[],"categories_nodes":[],"categories_segments":[],"categories_sizes":[],"default_left":[0,0,0,0,0,0,0,0,0,0,0,0,0,0,0],"id":46,"left_children":[1,3,5,-1,-1,7,9,11,13,-1,-1,-1,-1,-1,-1],"loss_changes":[1.5566507E-2,3.2624137E-4,4.215163E-3,0E0,0E0,5.6618714E-4,4.3220818E-5,6.996849E-5,2.3100583E-6,0E0,0E0,0E0,0E0,0E0,0E0],"parents":[2147483647,0,0,1,1,2,2,5,5,6,6,7,7,8,8],"right_children":[2,4,6,-1,-1,8,10,12,14,-1,-1,-1,-1,-1,-1],"split_conditions":[1.2E2,5E0,1.1E1,-7.780075E-3,-1.9042969E-3,4E0,1.2E1,2E0,9E0,1.5365601E-3,5.853653E-3,6.5231325E-5,-8.412679E-4,1.2374878E-3,3.3302308E-4],"split_indices":[1,0,0,0,0,0,0,0,0,0,0,0,0,0,0],"split_type":[0,0,0,0,0,0,0,0,0,0,0,0,0,0,0],"sum_hessian":[1E1,2E0,8E0,1E0,1E0,6E0,2E0,3E0,3E0,1E0,1E0,1E0,2E0,2E0,1E0],"tree_param":{"num_deleted":"0","num_feature":"3","num_nodes":"15","size_leaf_vector":"1"}},{"base_weights":[-2.2659302E-3,-6.1332703E-2,1.7674765E-2,-7.390976E-3,-1.8089295E-3,2.6648385E-3,4.6806335E-2,-5.580902E-3,1.024437E-3,1.4598847E-3,5.561066E-3,-9.5113115E-5,-9.7351073E-4],"categories":[],"categories_nodes":[],"categories_segments":[],"categories_sizes":[],"default_left":[0,0,0,0,0,0,0,0,0,0,0,0,0],"id":47,"left_children":[1,3,5,-1,-1,7,9,11,-1,-1,-1,-1,-1],"loss_changes":[1.4040197E-2,2.9464904E-4,3.8106332E-3,0E0,0E0,4.946647E-4,3.8843602E-5,6.767271E-5,0E0,0E0,0E0,0E0,0E0],"parents":[2147483647,0,0,1,1,2,2,5,5,6,6,7,7],"right_children":[2,4,6,-1,-1,8,10,12,-1,-1,-1,-1,-1],"split_conditions":[1.2E2,5E0,1.1E1,-7.390976E-3,-1.8089295E-3,4E0,1.2E1,3E0,1.024437E-3,1.4598847E-3,5.561066E-3,-9.5113115E-5,-9.7351073E-4],"split_indices":[1,0,0,0,0,0,0,0,0,0,0,0,0],"split_type":[0,0,0,0,0,0,0,0,0,0,0,0,0],"sum_hessian":[1E1,2E0,8E0,1E0,1E0,6E0,2E0,3E0,3E0,1E0,1E0,2E0,1E0],"tree_param":{"num_deleted":"0","num_feature":"3","num_nodes":"13","size_leaf_vector":"1"}},{"base_weights":[-2.2409612E-3,-5.8265686E-2,1.6682943E-2,-7.0213317E-3,-1.7185211E-3,2.3923602E-3,4.4466656E-2,-7.497152E-3,7.847595E-3,1.387024E-3,5.2829743E-3,-1.9989014E-4,-9.2468265E-4,2.2099812E-4,1.0869344E-3],"categories":[],"categories_nodes":[],"categories_segments":[],"categories_sizes":[],"default_left":[0,0,0,0,0,0,0,0,0,0,0,0,0,0,0],"id":48,"left_children":[1,3,5,-1,-1,7,9,11,13,-1,-1,-1,-1,-1,-1],"loss_changes":[1.2634315E-2,2.6581157E-4,3.4670285E-3,0E0,0E0,4.3648187E-4,3.488036E-5,1.0376956E-5,6.115626E-5,0E0,0E0,0E0,0E0,0E0,0E0],"parents":[2147483647,0,0,1,1,2,2,5,5,6,6,7,7,8,8],"right_children":[2,4,6,-1,-1,8,10,12,14,-1,-1,-1,-1,-1,-1],"split_conditions":[1.2E2,5E0,1.1E1,-7.0213317E-3,-1.7185211E-3,1.22E2,1.2E1,3E0,1.28E2,1.387024E-3,5.2829743E-3,-1.9989014E-4,-9.2468265E-4,2.2099812E-4,1.0869344E-3],"split_indices":[1,0,0,0,0,1,0,0,1,0,0,0,0,0,0],"split_type":[0,0,0,0,0,0,0,0,0,0,0,0,0,0,0],"sum_hessian":[1E1,2E0,8E0,1E0,1E0,6E0,2E0,2E0,4E0,1E0,1E0,1E0,1E0,2E0,2E0],"tree_param":{"num_deleted":"0","num_feature":"3","num_nodes":"15","size_leaf_vector":"1"}},{"base_weights":[-2.188249E-3,-5.53538E-2,1.577674E-2,-6.6703795E-3,-1.6326904E-3,2.179827E-3,4.2243958E-2,-7.1233115E-3,7.3257447E-3,1.3175964E-3,5.0189975E-3,-1.8997192E-4,-8.785248E-4,2.0624798E-4,1.0147095E-3],"categories":[],"categories_nodes":[],"categories_segments":[],"categories_sizes":[],"default_left":[0,0,0,0,0,0,0,0,0,0,0,0,0,0,0],"id":49,"left_children":[1,3,5,-1,-1,7,9,11,13,-1,-1,-1,-1,-1,-1],"loss_changes":[1.1379606E-2,2.397988E-4,3.1467676E-3,0E0,0E0,3.8729582E-4,3.1623058E-5,9.354335E-6,5.331941E-5,0E0,0E0,0E0,0E0,0E0,0E0],"parents":[2147483647,0,0,1,1,2,2,5,5,6,6,7,7,8,8],"right_children":[2,4,6,-1,-1,8,10,12,14,-1,-1,-1,-1,-1,-1],"split_conditions":[1.2E2,5E0,1.1E1,-6.6703795E-3,-1.6326904E-3,1.22E2,1.2E1,3E0,1.28E2,1.3175964E-3,5.0189975E-3,-1.8997192E-4,-8.785248E-4,2.0624798E-4,1.0147095E-3],"split_indices":[1,0,0,0,0,1,0,0,1,0,0,0,0,0,0],"split_type":[0,0,0,0,0,0,0,0,0,0,0,0,0,0,0],"sum_hessian":[1E1,2E0,8E0,1E0,1E0,6E0,2E0,2E0,4E0,1E0,1E0,1E0,1E0,2E0,2E0],"tree_param":{"num_deleted":"0","num_feature":"3","num_nodes":"15","size_leaf_vector":"1"}}]},"name":"gbtree"},"learner_model_param":{"base_score":"[1.07985E2]","boost_from_average":"1","num_class":"0","num_feature":"3","num_target":"1"},"objective":{"name":"reg:squarederror","reg_loss_param":{"scale_pos_weight":"1"}}},"version":[3,2,0]}